,PC 1,PC 2,PC 3,PC 4,PC 5,PC 6,PC 7,PC 8,PC 9,PC 10,PC 11,PC 12,PC 13,PC 14,PC 15,PC 16,PC 17,PC 18,PC 19,PC 20,PC 21,PC 22,PC 23,PC 24,PC 25,PC 26,PC 27,PC 28,PC 29,PC 30,PC 31,PC 32,PC 33,PC 34,PC 35,PC 36,PC 37,PC 38,PC 39,PC 40,PC 41,PC 42,PC 43,PC 44,PC 45,PC 46,PC 47,PC 48,PC 49,PC 50,PC 51,PC 52,PC 53,PC 54,PC 55,PC 56
1_X,-0.182093686510362,-0.383812039131021,0.02782696591911,0.260613467224414,0.310476393598232,-0.0118454164403126,0.0363695721244787,-0.0553720862521954,0.0283160111160542,0.0943423350243305,0.0212655193754683,-0.000711451499510245,-0.0273374924456218,-0.124308968708308,0.00708381090526835,0.030464873737221,0.0118775830100304,-0.00462201071639077,-0.00482028227830553,0.0266059278179698,0.0158863683047564,-0.0406128731525264,0.0225813545557854,0.00751058913333522,0.00235794622766184,-0.0445136853416483,0.00629929704972699,0.0172667985133762,-0.04792013488488,-0.00668960485500119,-0.182437219314135,-0.0842771811555968,-0.0366860805508736,-0.114877378243204,-0.0315735127930389,-0.0111537841328669,-0.125827554216045,0.015431354988102,-0.0108923819369131,-0.101728677691142,0.00631603101183377,0.00690194429899744,0.286180251691404,0.113322153566938,0.00510520636877069,0.531337290832006,0.277311138947543,-0.124188881145504,-0.0436362190660242,-0.00801567346018044,0.0289000858938636,-0.0733793859496317,0.00622776735190128,0.0501287337355339,-0.0718848815201412,0.0393454842308669,0.00375694520261316,-0.146137346351751,-0.0310946753922414,0.0172299424671372,-0.144159538636,-0.0398727513355556,0.00184371088220377
1_Y,0.0145632870349013,-0.359458784162966,0.0459359381252467,-0.097621276949514,0.223485741137928,-0.0323083545170326,0.0639556921650994,-0.13033113568768,0.033463291964799,-0.164922428696368,0.109292618356473,-0.0439336611003593,0.0524447784759918,-0.227898595572588,0.055480481205817,-0.132688386502723,0.13255978392243,-0.0750583543751095,-0.0372742429526894,0.118254249461741,-0.0676331971464048,-0.00420376315892714,0.171869210309323,-0.0364586148733378,0.0838733450000049,0.0142455914365507,-0.0103234504992029,0.00559427187575931,0.264071894544236,0.0148751622040579,0.173806418058734,0.18296654573463,0.0853653699899909,-0.0572237910297578,-0.202724444875562,0.0705334724380061,-0.033855906518295,-0.208036761315649,0.0444564318444028,0.0667126927218953,-0.191018859843063,-0.0755727051650797,-0.0463605943147387,-0.0626250684946111,-0.0114658039175315,-0.162560298421378,-0.000918175099278854,-0.0303859326864778,0.00640181608077617,0.0246128336778595,-0.0165843802719251,0.0416562364925735,0.185507039429232,0.0718030771057191,0.00240062868280067,-0.191591815977044,-0.0527678813265614,-0.00882775185319121,-0.173823855149315,0.00288061419156866,0.234129273809044,0.321561988167355,0.0276984968094136
1_Z,-0.18231671415631,-0.352975999736458,-0.0594180015106833,0.335723623930998,0.431194488490481,0.0284772158604824,0.0183959703932774,0.0635234477668657,-0.0674368340927737,0.0826024621042292,0.0219301932027992,0.028072354675666,0.101534014818102,0.132240432707924,-0.0408017985131687,0.0192404232762183,0.0284989859775836,0.0398362282056587,-0.0110095974551262,0.0208543033522995,0.00714507796272057,-0.045730501760585,0.0010125419154036,0.00491574309407009,0.0145847093230229,-0.00708688752764994,-0.0057841190981157,-0.0274402462021077,-0.123165895714219,-0.00847696597945433,0.0561411712961599,-0.158398335210082,0.00442062846357478,-0.00282161562267992,0.0989848634262371,-0.0783243086662532,0.039918820834274,0.103443163583115,-0.026263588888657,0.00384205745766008,0.0779233252412472,0.0809972850372335,-0.195430310755181,-0.0506590386922305,0.0409851019961555,-0.425315687374516,-0.202714400706168,0.152702152211675,0.134311796663875,-0.0859193083085434,-0.0382495850962604,-0.11057180786552,-0.0422474643349554,-0.0304666047587885,0.0241108447325527,0.129188669280442,-0.0326280146026643,0.0886440748999254,0.0892672631282473,0.00795082877070536,0.0815865114617359,-0.174894347842331,-0.00765279507112398
2_X,0.0530091447912178,-0.0783183255015077,0.177294901666011,-0.0681488335178223,0.156648591656696,-0.0713099830347488,-0.00892661659863805,-0.0262634634753773,0.0482296357195759,-0.0495209984877913,0.117796598539098,-0.0571914078988036,0.0498447603768794,0.0370675814204287,0.0986980829843302,-0.118351069818828,0.0157362010056785,-0.088091144378469,-0.0564368997056082,-0.0928994487401345,-0.101116288845743,0.0451453101197803,-0.141206221066738,-0.0509406034513565,-0.0298709741826875,0.033099819215991,0.0287768203625715,-0.211604196711715,-0.112574835848117,-0.147191703128522,-0.0928659785280153,0.145011890906262,-0.0634340227719103,-0.097572543978944,0.0170313194817438,0.270834478168024,0.0237474938877781,-0.0247440076625446,0.0218709381641173,0.152260569209416,-0.0284314349123506,-0.0752372033726989,-0.00516239782433108,0.111755735105485,-0.00392706711270968,-0.084374326465127,-0.0269421275640119,-0.0587171466645906,0.290745407615875,0.208622481270545,0.0333260812112458,0.524776900926812,-0.172844897666897,-0.0668424128579971,0.00217235772930642,0.0129725446657749,0.124264779843797,-0.0492295364718218,0.00693652622465832,0.0663371663958312,-0.269637572365733,-0.158454527054683,-0.0856339009979528
2_Y,-0.0287531851771867,0.101751103770852,0.120647959496439,0.0196198107953615,-0.0229998789357209,0.078661980666804,-0.0179181369899777,0.0221916204995702,0.0693981448950249,0.0838862930372288,0.0443351515386378,0.0658111419925143,-0.0478667969234159,0.0760858375168537,0.159559150884629,0.00021193824833475,0.0676172629357678,0.00599319141637409,-0.0759509314530719,0.0621120137434102,-0.0948531152477697,-0.0540615250860915,0.0377010270185849,-0.142367092527083,-0.0853714465459265,-0.000524171101702551,-0.0445462271971556,0.315044721660068,-0.00918335402758535,-0.154172468263412,0.146257088024687,-0.268250245500316,-0.00178630937004137,-0.137722879618369,0.0696149421818489,0.30170664846102,-0.175874107058503,0.0559460936973198,-0.00472493463444394,-0.235689043638168,-0.0177827557084439,0.0476705652177152,-0.0576618277204993,-0.0689093804159392,-0.124609780221936,0.0371832044012115,-0.100211480223257,-0.329835602428654,0.111045529584037,-0.226766257767621,-0.156983913720423,0.137512902683518,-0.00829305483926043,-0.11542971600421,-0.117240276257462,0.0707847838296439,0.160142635518054,-0.1106748344509,0.0456804068394003,0.138109258951965,0.294023502485127,0.0691003349479641,0.0216084821145915
2_Z,0.307693955609792,-0.0928623951106228,0.124518198864248,-0.0382029919647678,-0.111988337143833,-0.0447872134340564,0.213825191855338,-0.101307736145682,0.00459983790789498,0.00899848382667812,0.00433595929086383,-0.0760579996421736,0.254464480649201,-0.0210677771671326,0.124038145980936,-0.0735291138634028,0.0579673108018781,0.00157662351433746,-0.172117111405212,0.16132606671494,-0.0522301229407091,-0.202568350893768,0.119187402801881,-0.106494989772443,0.0347953179306243,-0.006035801265045,0.0636514846363024,-0.0898071629459145,-0.0632207337194022,-0.0756744267073711,-0.237545665175883,-0.140036955317122,0.016513306258442,0.151826075833261,0.0549565387546722,0.268156486272596,0.10318364186094,0.0254261294176754,0.128163018037245,0.071726838934515,0.0424675454126631,-0.0773616488319538,-0.0081085756884027,0.0311461947702426,-0.0868808239647996,-0.0905984923282469,0.137890469934323,-0.137397487746053,-0.0461657557273083,-0.0536351547193291,-0.0756745321409202,-0.384167980917886,0.087558380974059,-0.132227158056884,0.220712159589856,-0.0130294730496685,-0.0266205507280475,0.108775745914538,0.0231928603465353,0.0840879332953151,-0.133190691093955,-0.142270495581902,0.0761019191980971
3_X,-0.0955150205354752,-0.00704474191592797,0.0622057778417153,-0.0112343133235679,0.0605589474621831,0.0346436059228023,0.112708375895413,0.134829011270529,0.133261210856671,-0.0669403129171769,-0.0180730022869938,0.0327578273312044,-0.0286910125768925,0.153075590208245,0.0718004104306525,0.0377744730573705,-0.154510844631185,-0.0150929279095127,0.191310047810121,-0.172052566855878,-0.0739050285792398,0.183793046369449,-0.148156620951159,-0.031301963999701,-0.0305390589636109,0.103654265356366,-0.0443850521770079,-0.25436363663853,-0.0634133665407857,-0.179942881358958,0.440628108543499,0.344773819782669,-0.0938774158191036,-0.0608013858655518,-0.0621375547387813,0.156581543682833,-0.0252495642585063,-0.0100539390054807,0.0996545985087398,-0.00756708722090219,0.00900232395524337,0.0433197818671226,0.0596362407072828,-0.0327578453058456,-0.0386292558512938,0.0209063298360423,0.0622363396121383,-0.19849040991173,-0.0447671033919494,-0.0533860146983985,-0.0429683152377458,-0.425917797855657,-0.0440739901930462,0.0305153144723947,0.0223920537837379,-0.00706190339768206,-0.0206439649696942,-0.0111709094689163,0.00347368473353837,0.101544351899409,-0.00639147298617726,-0.0988815918597472,-0.0270472069995588
3_Y,-0.179581635293252,-0.117407738654376,0.0789670613663452,0.171393639288421,-0.0655608808119329,-0.0800404636699811,0.0186551348595411,-0.0919533273221487,0.077717946159267,0.129844315756734,-0.0989585362316116,-0.140708896456688,-0.0835927422364956,0.0180461012565526,0.0037601485797302,0.0897743803323145,0.0416137548488644,-0.0371957009762847,-0.0578083466581641,0.0132687214359005,0.0807575127371751,-0.0088167872693848,0.0139786895002136,0.0644517837409053,-0.175935645595545,-0.0286769417590886,0.10405866879716,0.0424898795151414,0.0418510089234754,0.0361967007959704,-0.103262076095522,0.246806372288758,-0.262769798449534,0.211660204188274,-0.030168001396452,-0.00280015867889878,0.0700744540965019,0.00266380437847315,0.10417484440962,0.0991675528441195,0.118812721165273,0.0420669177192826,-0.177702376768633,-0.0540293920241236,-0.128352814643892,0.101556038576061,-0.41106958941556,-0.207522003911382,-0.319747127850623,0.0508062086272205,-0.0595017599402351,0.0955516293294752,0.181028435539446,0.0232818427066756,0.071925123861754,-0.0152401991911686,0.243126940635014,0.0955600473179833,0.073025113477568,0.109138222044522,-0.0912056621987008,0.111163675364721,-0.0488069929647763
3_Z,0.0453559213900939,0.0632025368775293,-0.131510315117782,0.0593823698760647,-0.0153231409145133,0.0412490686979222,0.0460941289304661,-0.0563073160305667,-0.0110844074421788,0.046897980240704,-0.0947070640649506,0.0438316471957006,0.0754461627498332,0.0663988221707524,-0.0896907728493055,-0.232980838446669,0.0808929682489504,0.145566631663769,-0.378648636509392,0.164931347114779,0.0124452398835733,-0.365060977520389,0.0855249583392793,-0.0274297822105212,0.105793748985373,-0.0391980694402074,-0.0176623246602929,-0.0371469167795736,-0.153177591039219,0.0622775098423276,0.314599302556675,0.308330518656939,0.12581044596901,-0.0334533907561313,-0.0228143865710006,-0.0106594670874707,0.0295825923060964,-0.0360172621585829,-0.13753116436831,-0.0631354061766699,-0.0121660675530966,0.000313687610210379,0.192863835424339,0.0261590517452527,0.00284783255284263,0.229116583363033,-0.328398688978169,0.066613701700029,0.109713409100475,0.0629197350503307,0.0668687889929526,-0.0551981320974173,-0.110881113195596,-0.114495697862376,-0.0560600601274945,0.0290967359326235,0.0335866065585021,-0.0147753739221243,0.0249594815743869,-0.0206511379983372,-0.0183863025872831,-0.0434254557649101,-0.0406960910702644
4_X,-0.145088483453033,-0.0666439298075892,-0.0454028468909544,0.036918288707892,-0.0502936119200779,0.0653137317276825,-0.117705435585742,0.447245455188842,-0.141315195737753,-0.0627954270142063,-0.187079738891171,0.0481078035807721,-0.045219540444911,0.0233934151615601,-0.0268657703695656,0.0198658459566367,-0.100034379348744,0.0353096113706146,-0.0352460473381425,-0.0503255751539249,0.0728717560570438,-0.046342716030784,-0.0232238504342694,0.0779264799401381,0.0947131715827638,-0.155732745681966,0.020687107258447,0.221692720339544,0.0418063783848672,0.108590557735599,-0.129014195397476,0.0076518512588718,-0.101574183382918,0.0283802621229462,-0.0017935618877552,0.308038950283257,-0.078614696640742,-0.0415562791882357,0.141671120078339,0.07661114162354,0.0789172202332638,-0.387711155666572,-0.0250776943593118,-0.060847527737409,-0.0136998515171366,0.0318676029046229,-0.0735194992138842,-0.0283177293652761,0.291617721738885,0.267620038850901,0.0542296388357702,-0.176883835581676,0.0116821661155855,-0.00109943032496254,0.0493238784376379,-0.104020332202849,-0.0807505379630035,-0.0176141399902449,-0.066858731594747,-0.0181898544040742,0.0286115784218064,0.103613237868737,-0.0878202012454404
4_Y,0.125181936270205,0.0839141801788475,0.0931376022884659,0.0341882616006503,-0.0683515895039132,-0.0836772841897847,-0.0323547097589693,-0.0829799013198096,-0.0247413220683478,0.0796795590028187,0.0918673425811745,-0.104721255362129,0.0327180690605325,-0.0712728519324308,-0.00306762968159283,-0.0131463298250503,-0.0149641570836772,-0.0249156750170436,-0.0525930939905241,0.0223551859842241,0.00953621359172518,-0.0482408560048128,0.0338153509880482,0.0352021625194431,-0.173894248386408,0.0109168867971237,0.0715383133920601,-0.116157371538694,0.00503975215414771,-0.0152044831640439,0.0863977003923202,-0.16815765193541,-0.268776049483545,0.10958371833577,-0.113477252992345,-0.323665745051418,-0.132899861275377,-0.0343649935123132,0.169060976041489,-0.144360905509671,-0.0521248714156021,0.155701690615521,0.0223819434655253,0.0717175537379854,0.0525680185576228,-0.0387930485992206,-0.0538325127499461,-0.169027373282042,0.459983012683375,0.302433290268556,0.156632509079372,-0.163766505964509,0.19156932315786,0.209921701582311,-0.0832945592874643,-0.0251965497113731,0.0705241556788388,-0.0678051479343007,-0.0224249891523652,0.0462913448976135,0.117192437263799,-0.106481544538788,-0.0523178709445183
4_Z,-0.165740827239165,-0.0468204686692694,-0.125834993832595,0.0725918846135498,-0.0437356400847817,0.135334268872186,-0.0365116531440945,-0.155950457189352,0.0519444638486975,-0.145856269241108,-0.325852644419076,0.101028894079367,0.163895921571633,0.336072714827269,-0.0676631328691449,-0.0546821469530335,-0.195239773248534,0.0900392235724071,-0.0508629716527259,-0.0664308109513787,0.0449784099127844,0.0679288429204772,-0.00214220239634775,-0.0425602287247917,0.164537381223799,0.210944240020076,-0.0821237207954994,-0.0644185756793107,0.0971629480988752,-0.15806484492767,-0.0752038518146373,-0.142887330786951,0.226549528191499,0.116358064043415,-0.124954108834147,-0.0697465557914625,0.0760833390733403,-0.14664767285313,-0.0631870331959401,-0.0535884642298679,-0.0559467944219988,-0.0465825600916008,-0.0929102205718042,0.270059645765238,-0.0938420222743841,-0.021181736192926,0.0942229217429154,-0.18489540250837,0.00329239553954746,0.180146915982952,0.0328582515260222,0.0591597311053581,0.165774385865396,-0.0493648740782379,-0.0443987766590962,0.0313975227417835,0.250696409673748,0.0410279627574728,-0.0936875039158523,-0.0292974014813364,0.0404799705291651,0.0145141127263016,0.0797333208943235
5_X,0.0496272275322916,0.00324255426199332,0.222577330371435,-0.146000675400407,0.1451354929124,0.00517702357856419,-0.0724345095788678,0.109387194025552,0.024474414634206,-0.23309814962642,0.0448685156932243,-0.014214305365574,0.137111282586677,0.134389439084918,0.188326961776354,-0.107783910909022,-0.114497258335076,-0.156633493935263,0.0334411495826724,-0.0445294225157109,-0.109013853152065,0.0302832945215926,-0.092747278141072,-0.0961710881738574,0.358007989967901,-0.272113536808962,-0.0485810053609207,0.196720950611652,0.0774724100059779,-0.0608996766400464,-0.153086727995067,0.049676280036095,-0.195726443068234,0.147205458902321,0.108279013186839,-0.158393376532318,0.0816964719963335,-0.0379263799699008,-0.0552109457488747,-0.231069008973826,-0.0428933353532392,0.190435374254237,0.181901013611918,0.176394456949224,0.0486736289921909,0.00483486899102682,-0.250005019548494,0.111318461805137,-0.0615055912182139,-0.0309123837915673,-0.101197207609324,-0.105555261462032,-0.0493796919855191,0.0826473308144865,0.00630260615975896,-0.00101006912786614,0.0722929943167736,-0.0538865930134106,0.0020412670431922,0.0202402276311132,-0.0627118862868702,0.0851277523780094,0.0298776474119752
5_Y,-0.0465835851904886,0.113786288245868,0.0654675589142714,0.032148185038051,0.0687267736468251,-0.194962653945331,-0.147110619461686,-0.290183800778327,0.0263388993702924,0.0455281880183485,0.0896565650889908,-0.198485271346449,0.103256351387354,0.227878613298497,0.0994474666597531,-0.0189249634325018,-0.0176751557338214,-0.0859897203545311,-0.108217297135247,-0.0287304154004987,0.0173597720223862,-0.0288515383949108,-0.128220549391091,0.0887273668822472,0.0834383580864823,-0.0776324170948949,0.0549085536343909,0.264515242982139,-0.0875760743315144,0.176302921629253,0.0861933279840008,0.0953329689118802,-0.0360395143907688,-0.106037501973309,0.114326142726481,-0.0358077671621838,-0.0293881000803094,-0.105994023401541,0.0346727218969775,0.268643183695457,-0.101369938912744,-0.165095280953226,-0.161465623199132,-0.100564107001823,0.020671754716715,0.0128081731397177,0.278556319554978,0.0321680387873355,0.0665510350816136,-0.108455250580873,0.00308287908460565,-0.204807762801444,-0.0620005731735237,0.0744855558401986,-0.157894352061293,0.10858920156666,0.312993193298103,0.0534437313726468,-0.0312365398090549,-0.198250108307816,-0.00724443305548713,0.0427859725695362,-0.0919963662762262
5_Z,0.069204236085111,-0.0148459632545186,-0.0210832996575472,0.0519524927783971,0.0412148187334949,-0.0915131394874908,0.0607251385247274,0.448760705698566,0.0216087127148912,0.00261577205039044,-0.0579879083611717,-0.0536907959086464,0.0932984272137693,-0.0729778421264024,-0.0241761735158437,-0.0323054206156849,-0.254713303872456,0.0392592446695388,-0.244488045869618,-0.00812517755680946,0.117953197967414,-0.232276714216655,0.00580600168273249,-0.0122582325509516,0.00955953029751322,-0.0139358436656546,0.0996175307780145,0.119545809024792,-0.0463269146941369,0.0315699533511312,0.166109837818175,0.0181815866910385,-0.039124208782298,0.0873606455095097,-0.0933013415087279,-0.2110803897407,-0.0495288753599992,-0.0288255688445305,0.198270962684188,0.0635339289252696,-0.0313036966989961,0.217466433111084,0.0193917688492761,0.00685930599730036,0.0257171004381342,-0.185403500838658,0.336486920346949,-0.190408656868854,-0.210954901495109,-0.0387677416222367,-0.0907045262685519,0.241762611311545,-0.14265947168677,-0.0455295509232106,0.0109467685181369,0.0242317491806283,0.035961778511246,0.00807376111343522,-0.120882952177187,0.0512764178210018,-0.0491232696243287,0.0431126377388741,-0.0591323583425464
6_X,-0.00119967655961144,0.154136547859926,-0.0852119640658403,0.145305286372164,0.0892793162149677,0.141458682782379,-0.0464499242933157,-0.13062978044107,-0.037242074578926,0.18721573431223,-0.0674811037295807,0.134490547717414,-0.0260803474854679,-0.0988875737664102,-0.087684898821414,-0.153698983982307,0.114526255493379,-0.00827559748989215,0.0610390861948965,0.0292898143250465,-0.0560291237386147,0.123714007853658,0.0027865271178546,0.0380421645181097,-0.255293120269244,-0.186475498950742,-0.0138884387292987,0.208621859527824,-0.000263703747248739,-0.227345733663576,-0.158750192277292,0.262848726586805,0.301764681529766,0.143323459388875,0.0562108905082807,-0.0847149248078369,-0.0159984874177234,-0.019273959061642,0.193636012914839,-0.088296768957644,-0.145340245380093,-0.00540274358223318,0.0544703279599628,0.112534968834555,-0.0539676128911736,-0.186081147713107,0.0345874311269595,-0.155797724244392,0.101479266987411,-0.020645062471702,-0.0760036596887441,-0.0989220394487819,-0.268060430784656,0.172877543922675,0.183017163460748,-0.00400903106453849,-0.00949899167411308,-0.0394280580508708,-0.0447403962491508,-0.0242998780501151,-0.1379874456024,0.129606307579051,-0.0569062673590182
6_Y,0.0992899286389529,0.00477768904424516,0.116688197435316,0.0453726262795275,0.08860915993741,-0.0166368206299445,-0.443801968091862,0.00165665750894123,-0.0711661287541403,0.0777895799119742,-0.0119612407264166,-0.00147192243640887,0.0193759426613594,-0.0781005933634299,0.11333415864374,0.0397913878372225,0.162736359018513,0.0508916130075513,0.0217434168237244,0.0722568106749185,0.0296361338411386,0.137164317791961,-0.0269915964674518,-0.0714132992372918,0.180533476298715,-0.154863362032565,0.0508360806089873,-0.285115715413753,-0.0243520562105065,0.0101190153373222,0.171507748450466,-0.00112450457129999,0.0917219187122175,0.208852573812383,0.00890298224892359,-0.124294787701221,-0.107031446635064,0.00761215110884786,0.256354184740101,-0.241376508281234,0.101714688927833,-0.1579429534682,-0.242471736447416,-0.00619325484779253,-0.115360667168264,0.16653327336438,0.0807937001248803,0.0776384116737797,-0.0779055014404742,-0.00165615790426008,0.03552648822505,0.0448665518851702,-0.084161713128559,-0.331940186476822,0.104960846651933,-0.0257294948970529,0.0512376196017541,0.0131579317770649,-0.0972259615596255,0.0146186745103055,0.0667632741249793,-0.0167002628855357,-0.00837573046497071
6_Z,-0.0947265903702645,-0.0255710357037261,-0.0574509046608822,0.0532244777105298,-0.118505785072982,-0.0199303639564746,-0.196943024749275,0.0485650142523994,0.0357972390419287,0.0220233014498822,0.0065048508052414,-0.071298342366955,-0.0969705683641404,-0.154276067438454,0.0314871932347016,0.121473895280588,0.158342390757248,0.0757841057087075,0.0124882499181028,0.0649026153402641,0.051529683567674,0.167324816561416,0.0155310416901824,-0.0333794257231109,0.149367032566755,-0.139446368628192,0.162244393818398,0.0529598109874733,-0.0422592465692548,0.0580563563891334,-0.0262347760294453,0.117614615349769,0.0817217134789184,0.00818173764656854,-0.0207172013564677,0.159608748147643,0.200049976297968,0.00431123759843345,-0.330608776224228,-0.153089909521724,-0.0794244122644657,0.284675706138206,0.201397573270573,-0.169094652215967,0.0023232680083898,-0.255946263421907,0.140510183811468,-0.165537409595987,0.0701246508429542,0.103484954249667,0.0696364642372826,-0.076186427154698,0.237212460542747,-0.200948713400409,-0.0596386921604671,0.0670395948578664,0.123436714204149,0.0375493464109816,-0.116525296628176,-0.0338570938984352,-0.136428617171875,-0.0981988933776144,-0.22329055614865
7_X,0.0784161341649161,-0.218285586921114,0.0142118616899589,-0.104134750568979,-0.217334662050344,0.0648946736479571,-0.00451730441497366,0.209110388738973,-0.0657441109365698,0.106776057787505,0.140649383671443,0.0319623466178162,-0.162045641610625,-0.0455688424535656,-0.119931180747189,0.10722702458263,0.20447689393804,-0.0937727137019935,-0.0705669090572837,0.208918880452251,0.113848825417736,0.0356366728591207,-0.00785292248038513,0.110772525853071,0.263609992097015,-0.0615462700252479,-0.100358309338725,-0.084568844801864,0.0887254614124821,-0.205516709601971,0.161383147547176,-0.120406216257452,0.0732579532427435,-0.0360597291946386,0.0630455187525119,-0.00542979967233475,-0.00412076725124229,-0.00584009061143956,-0.0102684270463371,0.0774451439817246,-0.0765755799180129,-0.135884430591409,-0.0482240755413137,0.119533228713315,-0.0814526381152678,-0.0232184172904487,-0.0848633009813377,-0.0913066063071752,-0.122238944706503,-0.0104978926411918,-0.046430150932033,-0.0129588987325227,-0.0890843769088135,0.427405193856516,-0.0565969957273171,0.155638763484348,0.232339216551487,-0.00764652423667052,-0.0394058154423501,-0.128359459502416,-0.0935963698857078,-0.212836962472132,0.0157619396161354
7_Y,0.00991287064494092,-0.0818107731494124,0.144222207531131,0.0387086409238458,-0.113770413496294,0.0414633708459489,0.101188232694264,0.316327317205162,0.00876157730415212,0.104254268615826,-0.209799536647113,0.00520594177925114,0.0196530050299084,-0.0714933619411839,0.128826996457445,0.00624675580993088,0.00140059979151825,-0.289109819025948,0.0692008259198415,0.0454700149843986,-0.181869082325216,-0.0376725650287131,0.128105340689724,-0.100826131571212,-0.275518059989722,-0.0507916909849509,-0.0166689705200157,-0.170905664534541,0.0844477125587154,0.034670251479062,-0.125721343684836,0.0771036718922611,0.10304226295459,-0.0801300216988146,0.052956845771428,-0.0945339766639488,0.136957037954243,-0.0249772973264408,-0.223369619912535,0.113704677909753,-0.129833408877777,0.158028520900388,-0.230943998979646,0.0508547049596894,0.00883348783310927,0.171130503077945,0.0318656430596841,0.148130897139178,0.127880229972603,0.0145432303346926,0.053877821694277,-0.123560696599393,-0.164789768670035,-0.13794820891943,-0.038582845436485,0.0967206058813415,0.259394688441854,0.005142953946616,-0.125906265275738,-0.072823332401854,0.179055193452427,0.0733768292403061,0.0226911169797754
7_Z,-0.1317220377097,-0.106103472786596,0.0280136614399975,-0.169919441287036,-0.0306239289485349,-0.0111325090316609,0.0652706380352624,-0.132188071710431,0.0139155318605698,-0.100293194004793,0.0186117363786115,-0.000940235526850713,-0.132435722719353,-0.0126756265542979,0.147638300246073,0.384526155915878,-0.0406740734754473,-0.0919865065977188,0.0725446066142472,0.240012942393712,-0.000103763533501833,-0.0251168159101079,0.160534357998706,-0.165818202604775,-0.00863482379761975,0.18192729392418,0.0908712536945985,0.376856668618728,-0.13747904455193,0.0254079773713254,0.170014919751475,0.0254629308698308,0.0622405923365862,0.07404604354464,-0.139662282964282,-0.0701479217773817,-0.0287278096658723,0.0368434399767734,-0.00760217410066032,-0.0424572474343913,-0.0164777142018652,0.0146831121464397,-0.20599835558756,0.208037105152155,0.0554823486955835,-0.00121541404957713,-0.0247383269446533,0.0352610391829266,0.0425653476439948,0.216897150402806,0.0234684765038343,-0.0712399112139971,-0.250971368558758,-0.126579392424536,-0.00619098173448418,-0.115965867635089,-0.106643820597893,-0.0160850868082281,0.0158295544413387,0.0268589609038206,-0.245787538201504,-0.0965967332062244,0.0571132718132236
8_X,0.0811712413901533,-0.000846356550106092,-0.111452641559547,-0.0467506545516433,0.0468451518007884,-0.0739449846047665,-0.0230048629775672,-0.0494121605240621,-0.0437899506507079,-0.246209940848547,-0.0422952668826321,-0.104948547441982,0.13403605814507,0.255666387172422,-0.102859505876348,0.196812775769601,0.0387343625261818,0.14664694663891,0.0703513324818725,0.0811633625363735,0.198147132359101,-0.0401847234867268,0.137897204236515,0.182702083257418,-0.138837486976644,-0.471368608836685,0.125784006224033,-0.143799543461535,0.0891671508636256,-0.0441867266895345,0.0379112083446812,0.0150146549889447,-0.0228121043263748,-0.0670931617214645,0.0187015946311419,0.0944959863442325,0.00690377825521406,-0.0110458396206747,-0.20349585422522,-0.015265630379112,-0.0797722685260137,0.127661516557898,-0.235097073819626,0.119057865891029,0.0270421596352909,0.153509846274239,0.0749495109131148,-0.127223276489343,0.102620474102543,-0.0717652060271666,-0.152519044469998,0.0657129696688891,-0.0949376574652127,0.121732810224418,0.00201774936337469,-0.0742425649386599,-0.180529394706986,0.0870905400736053,0.00749529838965982,0.183409397229922,0.0181051043536269,0.0109933854214254,-0.0398600074304137
8_Y,-0.00109001825961586,0.0204994547290864,-0.0396375600242585,0.0741050806966927,-0.0158688484691398,-0.0907165763206199,-0.140970903642384,0.0866085786526581,-0.159810592548453,-0.0455976927187217,0.0983996603495191,-0.133127708678966,-0.0032106987348029,-0.245919551945983,0.0643448105528109,0.0280648688995936,-0.111856618018496,-0.0282822950299512,-0.191658956926406,-0.109005495390593,0.184289820054512,0.076882012076034,-0.180245148964738,0.187093813794908,0.0715170713145616,0.402763476285976,0.267975843787005,-0.0158264300012665,0.057227029178257,-0.0667543340418776,-0.0583764288818124,0.0210607228412012,0.118889684607775,-0.0950556379951035,0.0699199249013561,0.0477929091026955,0.0713303256709012,-0.0755486248310116,-0.0020887244924146,-0.0662649811963584,-0.229030303682804,0.119807928561348,-0.0901972822852278,0.218827420561031,-0.118432438529139,0.142404003993121,-0.137647040456857,0.0409292082832419,0.17463501162273,-0.159511470788388,-0.247073260773667,-0.10493107637203,0.00970399089179074,-0.0386332352136004,0.0737731824970867,0.0117412122370628,-0.0909885103920047,0.103865851465493,0.168658240263354,-0.00949389726902992,-0.00339730122247433,0.0992233916567209,-0.00608488543031405
8_Z,-0.137124012147468,0.0148053269402072,0.162376532554278,0.116621493164876,-0.0869979636816481,-0.0709105551828899,-0.0829896909595825,-0.109530328244293,0.0745028724299855,0.0463099998655079,-0.0982174920768372,-0.0293224803309668,-0.0181584360919559,0.150992516669414,0.032882525120313,0.231474059183445,-0.187578351358411,-0.268400600689321,-0.087008386959215,-0.0604303516602938,-0.13049250935011,-0.264084122172139,0.17854874627509,0.0754867967249065,0.0776926626208667,0.0824089684310972,-0.0206491215015293,-0.118728103118139,0.231690325109724,0.0292187302475905,0.0146965576665426,0.0690980237332941,0.115800656645477,0.109097361642715,0.0969116818526962,0.0924403734818455,-0.0329083165184383,0.150079206642157,0.0545617445294379,-0.257614164224438,-0.289748635670203,-0.0988652432764612,0.081377224989032,-0.213255443371392,0.0763826154138773,-0.0260726397681762,0.048169308607065,0.0633587426648437,-0.00713424478375433,-0.0222122329508351,0.0535874593691598,0.13056394081316,0.00845534321870991,0.172075482283246,0.202920292857396,0.111827270949831,-0.178423541485766,0.00343547597003066,0.0306744188198583,-0.00340336846460619,0.017633047969722,-0.105690338235241,-0.202207111183313
9_X,0.168573364809812,-0.167860789554005,0.0973350131662988,-0.113189705082363,-0.00925677524212815,0.121653169879216,-0.197924825093373,-0.0199686115055867,-0.233408037026745,-0.116424929750801,-0.0254691481502154,0.0223012705273654,0.143351805755809,0.0375315885399387,-0.0435025378415369,-0.0313759783981463,0.132497277213138,0.0833299189741075,0.19279777192299,-0.162455596510439,0.0267215479488457,-0.180187403526661,0.0382208104496629,-0.0640431739814583,0.0590498462751586,0.324009999428565,-0.0390677540605198,0.0582274050741904,0.000677668300598233,0.0479889355744233,-0.119881041363129,0.110242272468698,0.0846940613616578,0.0325992924084201,-0.115764185008182,-0.115888146959369,-0.00656879568930457,0.11655869032155,-0.112707468070717,-0.0237112711673394,0.226934354676126,0.100186641534821,-0.0459856234724146,-0.409265141054876,-0.0133450657863885,0.101597046856653,0.0280836118442697,-0.156270200324356,0.101327464354728,0.0385984973552023,-0.166540802009057,-0.0268683085792589,-0.209870614532588,0.208757185510832,-0.0226966343976132,0.0220447925187756,0.111870428994087,0.0744532720686742,-0.00235639101508084,0.126463223336045,-0.0471627530060219,0.0468676894565771,-0.0865282107475474
9_Y,0.105552094996997,-0.0842788729985499,-0.0427238676503029,-0.176605180683212,0.0688545352212863,-0.0217594728944965,-0.0858851560311437,0.0134139435907809,-0.0996066468097903,-0.11572975995366,0.0836592486881219,-0.0591004183429122,0.0204250330758389,-0.00873461533022333,0.00549595471425132,0.224392781035694,-0.221815604251959,0.118680642417172,0.234401922748631,-0.0167921533984065,0.105097376927434,-0.101522411843273,0.29387889909278,0.0448892960138954,-0.185625841756481,0.0611688875180707,0.0797425228471177,-0.052584994520861,-0.0557196699116956,-0.0110462973953379,-0.0781830829652948,0.10501515549565,0.0828499512552515,0.0794089856726458,0.113530925066273,-0.0150774726661286,-0.146627371972627,-0.0856912527465941,0.0776610533407689,0.0599147970126097,0.0729259117706089,-0.159842537933463,0.316168521757698,0.185411158241205,-0.0393080425435101,-0.103967175408659,-0.191576346771393,-0.0205923557474933,0.0378430859291298,-0.319149255825724,0.116039625939228,0.00750771035203063,0.0480922906025339,-0.131259803112542,-0.0593385557641077,0.127066982967254,0.231659773872879,-0.0587228316994031,-0.138786951798974,-0.116180599831362,0.0791774300174047,-0.0504732152211102,-0.145618682400662
9_Z,-0.142945754108213,-0.0514305048642578,0.23103517926973,-0.0582889613982617,-0.131857388549028,-0.137097405124222,0.0367117123294828,0.0300763204509703,-0.0207867947829435,0.0924255532872403,0.0067758943997417,-0.183611923437318,0.051406345672754,0.139224006276373,-0.0160569640108755,-0.123004964207145,-0.0181763997720559,-0.0050775593801039,0.14468773709926,0.1093433381737,0.0983935468076919,-0.00312832322511316,0.0503384552310639,0.2101867820918,-0.106429534760749,-0.0791778663075772,0.0385561781958583,0.0180777442044504,-0.236908369285193,-0.266209049052123,0.0241261914959449,-0.0802498010529831,0.16286314765363,-0.0262568496456251,-0.302989438892018,0.016076592637705,-0.0384561030687642,0.0582428000495712,0.0482593935320461,-0.063968773010565,0.0120444137284221,-0.0335606560943782,0.22092724721446,-0.0559882284459981,-0.137016535597509,-0.0375509611096005,0.0477300753029233,0.374274027140457,-0.0586337670701362,0.225097113545558,-0.330145605247908,0.000546453474680721,0.0530168240245329,-0.0535916862797478,-0.0686092562157866,0.0520649275893728,0.0445677733534456,0.0465987940088174,0.0633847537997328,0.0366757324935987,0.0917654690328723,0.109439074597135,-0.0777341741688358
10_X,-0.0931067432709018,0.178249281684749,-0.0984752355899136,-0.0112040300766348,0.100545127895003,0.0697234910611891,0.167725048679997,0.0287498888310029,0.152215744538971,-0.148941135048312,-0.0532387449700144,0.0421145160062816,-0.0376977524062783,-0.221668806154897,-0.00594835233970258,-0.12994831660681,-0.0917729534437215,-0.0848145852250203,0.138645736878874,0.0114756498053158,-0.0399970624591822,-0.000831746433849159,0.180071390203725,-0.0814676990236077,0.194585557223488,-0.119176001987106,0.115221090453426,0.0256648786093401,0.0840526509522823,-0.0708494343645642,-0.0234503256976421,-0.0121160686265385,0.230627466145962,-0.0285029294751298,0.176273482205742,-0.16530127821025,-0.200458463914404,-0.0179021372470678,0.143593655846191,0.191083911052075,-0.00828588114718207,0.0135137871779355,-0.119652256593938,-0.182168606062679,-0.0841253397709885,0.133506355725865,-0.046581238633716,0.0420321057271166,0.0782013769774913,0.0338511195695877,-0.192324897664089,0.0119930201813494,0.212110168834414,-0.0334380578486064,-0.160245333270407,-0.0973062955567761,0.0948319246930055,0.109847157447285,0.154553363350133,0.16384167452524,-0.0972140099814223,-0.309715389502158,-0.210973513679399
10_Y,0.179976793650888,-0.0600653039086554,0.0167449079670332,0.0245923902481568,0.0337398075138452,0.0781406228835122,-0.284543825833211,0.0463902200399884,-0.196472649460955,0.123631401719152,0.0990643496644934,0.130562878425156,0.11418356776119,-0.0109928779832497,0.0305092178974017,-0.150291756650216,-0.170556416504073,0.0527880577185214,0.135223160481931,-0.110143395456536,-0.245206242892676,-0.027523750347627,0.117682410751171,-0.112304151165111,-0.16671156178102,-0.0464213303330238,0.0247258828349281,0.10113290405981,-0.177508162360004,0.114303600156157,0.158662098661399,-0.0812191896884082,0.0820852703848405,-0.0411878815477561,-0.0277726701570393,0.159112874495788,0.209844429903495,0.016029556308476,0.0412530465507321,0.0397098860227002,-0.17815855172821,0.0114715350591025,-0.140749160237397,0.198850050382941,0.13227298906025,0.107855522414999,-0.0627844913098277,-0.0373268871998878,-0.267616369904651,0.14573205121396,-0.0448846933181448,0.0149395622144618,0.25228244129698,0.158730303664952,-0.132150534817881,0.00494951124219837,-0.105739151407806,0.0501218311952002,0.0850213774219826,-0.0811320519921183,-0.04909870721362,-0.0741193864070195,-0.209635359661667
10_Z,0.127644817476151,-0.068769834521418,-0.0265983414957229,-0.043858135583635,0.0829482825027505,0.110482118521598,0.223336147715765,0.0790672883890433,-0.010950006825431,-0.222771218165394,0.145875636637666,-0.0265528167283815,0.0964499057600867,-0.0151850738865231,0.0311455187796355,0.12535103192097,0.0381090661710101,0.050064684180587,-0.213270878656134,-0.0555463596532245,0.0272736624617318,0.123080221032668,-0.309481068122502,0.024993714812792,-0.308754382034775,-0.0638606907204278,-0.196838648087916,0.0710690752580655,0.167860986846209,0.0187235500169723,0.0899418325610037,-0.0934771545556531,0.17811395698926,0.184981866149454,-0.124038095792952,-0.00252333440244006,-0.15791673299921,0.0528514147119628,-0.0764637523626806,-0.15930396648406,-0.0303390396811394,-0.0898103384382115,-0.0335900446966522,-0.106200662793107,0.222508581827837,0.101483759851372,-0.0291127566311157,0.0767793010881801,-0.0309167496348579,0.0323589187594285,0.0007416149882645,-0.0258497931322045,0.104395051103238,-0.109049027452108,0.114944042860977,0.0391388235044113,0.210334094961085,0.0787522327945839,0.14288127000979,-0.153570391312179,-0.140803031994161,0.0105239977225634,-0.258804141522861
11_X,0.045327543772616,0.00918347597440808,0.112746539887153,0.103998703450723,0.0100805436007845,0.0898120867566164,-0.0681014297486206,-0.115145566614968,-0.0985167966386867,0.0471218902419674,0.0968456238992934,-0.103795965666662,-0.0444032311737027,0.0596441141311408,0.0563800019500295,0.121957996500549,-0.187350992533087,0.065820810787246,-0.213034386935305,0.0884810275607025,0.025818109662997,0.183277856666425,-0.00179791171653257,-0.0731818431031281,-0.0243255074091502,-0.0060604198128712,-0.100735940397631,-0.117668129904535,0.220202642209181,-0.0717179771824061,-0.0580682037283291,-0.109252534824895,0.13179963928491,0.0345186854217371,0.198297704443772,0.0601256245663646,-0.0746601018749121,0.0220607740390143,0.0871147357688268,0.254998122650584,0.0272486183448676,0.16012447098608,0.186182969097065,-0.112707768271084,0.0627791865325588,-0.00320330802723039,-0.149244068436193,-0.0796658471849819,-0.126737067328493,0.257762245062493,-0.0205790332371354,-0.095974263953568,-0.258008210064371,-0.0947219746872469,-0.377576635548314,-0.00747336722681721,-0.19270806239198,0.170754706769019,-0.158518542662832,0.0226586668512998,0.0556137910614765,0.115752612898,-0.0395564325442197
11_Y,-0.0413641690931006,-0.165450614742172,0.0433199552815221,0.045962132964724,-0.194270320791695,0.0760722104474873,-0.116885695175345,0.128557159328997,-0.0340614524986228,-0.0846740762882958,-0.0119886919461152,-0.0236602136700771,0.16702220375613,0.0771928931728506,-0.048065195280299,-0.0564470528950951,-0.0767267942194305,0.0658226224303819,-0.12972957418847,0.251651004041693,-0.0888040286741445,0.241566645557469,0.0111420724570889,-0.174618084333522,-0.166627777303866,0.0472729949551126,0.0768780969398082,0.0911096262200244,-0.0880285841551117,-0.170318747923052,-0.0244524400165467,0.207595738263493,-0.0894273322179638,0.188589680206875,0.0791599532277764,-0.0616167713113607,-0.0780504791035582,-0.117232937857359,-0.0157585616746667,-0.0571008689681757,-0.0937947671868266,-0.0966705885075029,-0.0118344899991989,-0.206204942042869,-0.0202154773563668,0.0562200375754246,0.101618105599246,0.140103577521004,0.121337919839438,-0.25115126803805,0.138632302134994,0.113519011308731,0.166422458460825,0.11346968666169,-0.247571380092159,0.0879722798812222,-0.160860429634616,0.11624556237657,0.100484406335015,0.0668292783576548,-0.126834816681578,-0.0542201447437133,0.262949153307651
11_Z,-0.0427939301628157,-0.16719881158803,0.0897785118330643,-0.0341199198807078,-0.138142541197899,-0.0741690236026851,0.0761531425820887,0.0583728597955813,-0.150524855449383,-0.102932591732087,-0.27204904795076,-0.0664401231783685,0.0296323522591395,0.206697570891626,0.11564256321421,-0.134127388218989,0.340231357642858,-0.0691101741568663,0.158599865471784,0.113899862796846,0.0222854574293364,0.0656753423998191,-0.130596378859713,0.155024691014063,-0.0749679898808091,0.124070982122088,-0.0651021143194818,-0.000677036420260416,-0.103307077222265,0.29011287987412,0.0713232597381818,-0.0359550384006251,0.105429088776558,0.0119413127426278,0.366618270273196,-0.0930927135345439,-0.138550244394802,-0.130838799705634,0.141210905890121,0.0213397315834055,-0.141933196161402,0.106132315513212,0.156202684733574,0.0496736946928381,0.0876670440039367,-0.0321103374549121,-0.0258304525563768,-0.175029284982533,-0.0459211592915542,0.0216603752178149,-0.0804355248316384,0.0806605791115536,0.0533450717048381,-0.0929361608566449,0.0128787001597906,-0.167013095337028,-0.126671709829406,-0.0918812527021439,0.0689628655931079,-0.0714358468086761,0.0136748793571486,-0.090668471750999,-0.0483359259984088
12_X,-0.230252233067946,-0.186998538854152,-0.0952810289987059,-0.139984445291802,-0.256238451162707,0.0301953589517524,0.0757289386833058,0.0451620473008611,0.125436432299785,0.304447033510611,0.33627758120646,-0.0210044651099518,0.0283819191579317,0.171770582711386,-0.118404762341064,-0.0721095482725335,-0.055813604363333,0.136859961389141,-0.0101703704760217,-0.0826942834321317,-0.155348406654031,0.0634411478421233,0.0694007379133293,-0.173040365520966,0.0832826765579719,-0.033650724646608,0.209314057972131,-0.140951844760961,0.0551810876850203,0.157295270446665,-0.0612778859685764,-0.0296960898956671,0.0418428488914147,-0.0307605309720502,0.0804064054074859,-0.12427159446735,-0.0155195593322231,-0.0824177793915627,0.00871528179661986,-0.125569488223959,0.0301781219548109,-0.124368375763177,0.0267550378780974,0.0695542401720894,0.284812820169635,-0.0151763774041529,0.0171951507038212,-0.0765697979933974,0.0870301256010051,-0.0614478112677662,-0.156469187108079,-0.0132114480300815,-0.133503513410307,-0.0568696553248748,0.0689664466170103,-0.208952909349244,0.105942911001715,0.12401880263632,0.101570114653464,0.0963416781869078,-0.0070683966840551,0.154717636064747,-0.0951289818241733
12_Y,0.0602074692625032,0.125774848677651,0.0607602640772258,0.0854176965467277,0.0979975157699955,0.0270596269729485,-0.14103226622619,-0.00480046855869599,-0.15487463903606,0.0114354712183601,-0.308871202851153,-0.0570798548273383,-0.0340883755983869,-0.0770212712194424,0.155481994521877,0.00777476588953033,-0.0605423549063645,-0.138076082448371,-0.185939815540823,0.189742481887694,-0.0399979366873823,0.232636118620289,0.204855907212732,0.0859378893537675,0.0227176749865995,0.035060166154267,-0.025050646360007,-0.0749244599865046,-0.00523629954565188,-0.0357764519252907,0.00804019682954639,-0.0286154416066515,-0.0650780336722487,-0.141968674746929,-0.207455133011093,-0.0258088057394617,0.0191795869439782,-0.0360007459991563,-0.131561563861564,0.033633364985875,0.197937074000654,-0.145280596425004,0.151214649641494,0.0569624249266581,0.303833377752313,-0.114617589493159,0.0501465528278584,-0.0636351647390443,-0.0543578700987046,-0.156839616638559,-0.00350991031459014,-0.00372019578069888,-0.0894798382665938,0.10344638982321,0.0257063763012554,-0.278286073892286,0.15010339317249,0.0480678222047765,0.342731380969346,0.0971506818083537,0.0446180540405299,-0.0480599059310877,-0.0980439314458206
12_Z,0.0171460894735239,-0.0580847191543944,-0.0563421651415919,-0.00568985374071075,-0.0114903512798234,0.00582773506899386,-0.054118959146326,-0.0145027056854833,-0.0459339642160904,0.0803622668141156,0.196907817845602,0.0919904040870173,0.0470829481965226,-0.0376464249119003,0.0410116785751005,0.00321753083459759,-0.0159713302623041,-0.0817054448158563,-0.052496750352002,-0.181227440509501,0.129999087284958,-0.0914620729714078,0.0161789129065457,0.169305485593601,-0.0813285661756143,-0.029167668364048,-0.0764883319383376,0.137158793980346,0.0918995419433415,-0.094527206998681,-0.122146279396101,0.307358553892794,-0.0391525724372318,0.0795247586359391,0.0717326206845364,0.029089996822705,-0.0303388185165704,-0.0109983983246685,-0.0957454000595266,-0.123449383933784,0.00588169896519338,-0.0450590374362595,0.00115413203956525,0.0192407243052538,0.106922159042583,-0.025724762984246,0.114191177992129,-0.0300670771317144,-0.110669875934066,0.192210139626372,-0.140622945892801,0.0210641921053984,-0.0133145025561314,-0.135340082511575,-0.104091541608896,-0.24177312539871,0.0593247929245054,0.0683591913334296,0.056954473129468,-0.102400859110553,0.346446961346305,-0.458378994844246,0.309913748290757
13_X,0.155851800794001,-0.0678635406677984,0.0991301791297314,-0.00821314048971862,0.0707334435549493,-0.138188949852061,0.129894392822183,0.0185783807680993,0.128808912802575,0.0266590007543527,-0.0248856259181114,0.0702999109149521,-0.150695201810743,0.0732857553239107,-0.209431761359055,-0.048038851708067,0.0561013870623482,-0.113515941700031,-0.132029614077836,-0.136973740731336,0.0395822424561189,0.0784787214054705,0.0325850208943818,-0.0124381233837839,-0.00937963195920512,0.112515701011676,0.0574469515102415,0.0572414322192157,-0.123664473604093,0.0275923702841404,-0.0229837325574226,-0.0149431724570208,0.0480611405254501,0.26808125540242,0.135932210860571,0.154099976669067,-0.00883490588959014,-0.147950562791987,-0.119686973395454,-0.175841509876525,0.193700669531943,0.069384103089369,-0.0801052532214555,0.126195540177526,-0.274732720572994,-0.00337436008745068,0.115207055169582,0.163560689227745,-0.0376008343318333,-0.0541637018450009,0.196132150184059,-0.026999603534149,-0.0961074843129464,0.1618129548306,-0.212656446255525,-0.280436784518566,-0.0369387155969683,0.0647711520005533,-0.00354422680378897,0.052160353329729,0.135775330401358,0.0156981492956948,-0.363138749093444
13_Y,-0.0776164146742659,-0.0569806786431981,-0.112214364326768,-0.0029592815653692,-0.0900747665616842,0.171921391634935,0.070790385026932,-0.0594195277489033,-0.297488359150633,-0.0442473023293916,0.125775125518188,0.00344646409842138,0.100511760191283,0.168598481795003,0.0803880413025573,-0.127309107980192,-0.0907802176648496,-0.0975738080924766,-0.167664124705792,-0.0716493143361671,-0.168217902854564,0.233396464505615,0.190635452848034,0.125943268980016,-0.0332824867307181,-0.062403462369999,0.303002680422064,0.0361247752078319,0.165420041673813,0.0782873435107897,0.11966592827768,-0.0514303997614666,-0.0208783072687709,-0.024386442466413,-0.0611713701675135,0.0369550708778979,-0.0873916161709983,0.137923163528719,0.0136781932143522,0.0652148356806966,0.164013312420927,0.204114936442915,0.0282401676845421,-0.0881948123833802,-0.330714016061574,0.0363205904793531,0.0145416923822626,0.0774511244007275,-0.0187291585995285,-0.00521135841651622,0.0572726361687171,0.035029203631553,-0.0452360040676837,0.00859724153968629,0.196652390837855,-0.10685881158196,0.0449026895863463,-0.275708439308623,-0.0602445562523824,-0.203817585064735,-0.0626521269920756,-0.117251990211278,0.024943260640096
13_Z,-0.0570763908462004,0.117457543618446,0.0670520643027059,0.188721834542328,0.0223226676163555,0.0465217395501656,0.0869320264744236,-0.00329030875572569,0.0647691095046442,-0.129878853710135,-0.0199399748396621,-0.27093057540747,-0.0386588589940083,-0.152169184539607,-0.0764712507339088,-0.131762889646951,0.0574523834399939,0.0671970772526866,0.0833300803453629,-0.12900742591542,0.0295757498642491,0.0438029739719268,0.200459670923619,-0.0264340861278827,-0.0435498167701042,0.046427076880384,0.0781169400212186,-0.0615732406969425,0.108819275140993,0.153353156603223,0.157552325161441,-0.120220272570164,-0.0273918464660268,0.384120473961393,0.0195247631624683,0.141694794647484,0.210642613557275,-0.145704381433642,-0.0706843647514699,-0.0675542502590589,0.0370777613339676,-0.166593213382716,-0.0124567853263697,-0.0120937669237348,0.153726192079724,-0.0157850260058233,0.0148448287877348,0.00533498405292639,0.0230985171926873,0.00896626566815163,-0.284753899419047,-0.00363966949544269,-0.169847347942043,0.038914253100465,-0.195803992898528,0.15368064650789,0.0140414150789709,-0.340164203056167,0.0145076588381508,-0.0862816554387809,-0.0802968675010416,-0.0492678789980782,0.149243415668839
14_X,-0.0253263142665421,0.0288215134559654,0.0199979792889601,0.11593992798835,-0.107129984520979,0.132446498385494,-0.0543120106354053,-0.0489980532104858,-0.129251209737458,-0.00255044897988961,0.0137999110680604,0.0790357072978386,-0.0498640705656874,0.0738386194520508,0.0138696298544206,0.166049242639158,0.198712386611785,-0.187048487185578,-0.0984041083890665,-0.147558273904896,-0.0181350661946337,-0.176415880364752,-0.194699851253864,-0.167872936152143,0.0663710046555584,-0.0339817839189441,0.248391754628295,-0.0296441209958125,-0.10763073877268,-0.25857613083469,-0.00493624383810268,0.0588875067440349,0.0857067763454063,0.176256717958647,-0.0461882594456189,-0.00497998000998612,-0.200144787030311,-0.0516992267443229,-0.102818384738345,0.305867951149252,0.13967994197345,0.0435925763088465,-0.00127756985672463,0.120743582526461,0.312517387135984,-0.00777156992688878,0.0292710635672429,0.0918092502402166,-0.0167676243235194,-0.0800243883763882,-0.103260331176726,-0.00930949626074635,0.215577032146611,0.0162557884393713,0.017055291614962,0.00601666048068673,-0.107535162161032,-0.281587316037624,-0.131001838098144,0.112835520817857,0.110771425465131,0.0635641802199832,-0.0769811805521063
14_Y,-0.13086222768832,0.0809186502630363,-0.0207899297307305,-0.203657480934128,0.16209917918609,0.118418080269096,0.198501087223549,-0.00854822368652123,-0.365275077244538,0.244705509706687,-0.0396328636298736,-0.0310207127503292,-0.154414026728589,-0.0487044060862259,0.253021145644148,0.172610997660729,-0.0589061932938049,0.181996849083173,-0.0610988527912665,-0.0866926622837413,-0.142690263166749,-0.10937477086291,-0.0116066916495236,0.0881812240813904,0.109983894908481,-0.0875356138984483,-0.199323041999024,-0.178636683559012,-0.167021792950047,0.104071812631584,-0.00218045888385074,0.0475573743013696,0.00319637737152705,0.290801600183118,0.030431253362972,0.016675585947487,-0.0641436019802563,0.0308062662390306,-0.117093793542531,0.0159599482112963,-0.167913362295777,0.0211682223091873,-0.0326082077388109,-0.000627934689295647,-0.182914217820263,-0.0446162575304521,0.117835285044938,0.00329677469849316,0.0916961535183334,-0.0426377482331865,-0.0830649292192625,0.0449447675431956,0.123755972005351,0.0867435409245555,-0.138851261291508,-0.106040431881622,0.0728536671632539,0.0302360147594063,0.0852817634648509,0.0646531079003396,-0.0789961437256916,0.147182180710405,0.127895577449211
14_Z,-0.0687085041220061,0.0471767061508306,0.0852779887274855,0.080386245154555,-0.0630408032390866,0.140994933871575,0.145375345995,0.0209180291121846,-0.200927525830893,-0.126979255792381,0.0473007637878611,-0.194046115242805,-0.0303499118605069,0.0038820160241603,-0.0045022459802717,-0.122533622625539,0.246191947192575,0.064867665211797,0.0445700668562263,-0.26903328681414,0.0525505387329619,0.0419282603268097,0.104905807752037,-0.119699687423049,0.102879477627158,-0.0429556064826787,0.130194294985853,0.0615018379058042,0.00248743506294328,0.020298409198644,-0.0762602592314738,0.0169534520901693,-0.0710126679609945,-0.018178029265259,-0.197046033710684,-0.0408531254950193,-0.166840532354411,0.0593483186461728,-0.0104515157318059,0.0391950602818629,-0.315520727020391,-0.0998263994685732,0.0241437466337904,0.131184569981962,-0.0571832700424312,-0.0454338233002677,0.0109350162133217,-0.0479989474753877,-0.180950420089027,0.0257014983385447,0.347446176478433,-0.0284421444278333,-0.187556044712957,-0.0815277391446549,-0.028008062239013,0.23197236164151,-0.0329569571104912,0.184702033224911,0.201600325588706,0.183464193021851,0.168002491301594,-0.075405745603004,-0.0641080033222157
15_X,0.0142299867077386,0.0214191021699047,0.0146172912525336,0.0927999947247699,-0.0152723475635311,0.25230700229488,-0.0781184833951992,-0.016863295666574,-0.00245904846505756,-0.068383022647155,0.00748157058125758,0.031100673105059,0.061343140187864,0.0100380322381373,-0.122642402146483,0.263228440082704,0.119011152166836,-0.157908849015359,0.0457904794206176,0.0458860039737478,-0.201813651855491,-0.245473151048975,-0.293315867118192,-0.0351661853405242,-0.125194280553807,-0.0928983257362666,0.119171716139075,-0.0314316204009423,0.230018504773656,0.222529826980944,0.0549282713580466,-0.0107392842294267,0.0167520863616094,-0.118720661683859,-0.132222054288165,-0.0440143170859966,0.207494688961011,-0.145096836096259,0.160695632340127,-0.0328940043428407,0.0889971150895546,-0.0805029442062719,0.222520119559619,0.117270724763155,-0.311516828926625,-0.120273130485651,0.0656879684389872,0.057169496882015,0.0229437584183408,-0.0381521603093051,-0.0875065251285762,0.0126000403878425,-0.0125639462793745,-0.0376830404741898,-0.230144561241864,-0.0663358408744466,0.0357729591808353,0.096861100049087,0.166725226198136,0.116868964236733,-0.0441071040574128,-0.0490754422319559,0.0542281438707343
15_Y,0.047741957874579,-0.116576310337234,0.0592820939765375,0.162601514777189,-0.198291352713326,-0.127368364808136,-0.122774141269527,0.0331865511254507,0.114711556229009,0.0590485422660024,0.103389945564768,0.0510465540816394,-0.13486138881692,0.0978409713082742,0.055816222851159,-0.135620155397867,-0.0218476722598069,0.114429413401916,0.14288208630548,0.0191690573864293,-0.0542107732878466,-0.116515380583962,0.0272875605129243,0.155220877901687,0.129760065224578,-0.040447089554691,-0.289438786746689,0.0373017840964757,0.247777197080415,-0.0116266162259003,-0.0641786854180189,0.0603077403863237,0.0509314124449332,0.17515410316145,-0.321284701182921,0.0502128510328675,-0.0792359360138083,0.0476648379569098,0.0631151814140649,0.208676243124917,0.0264446865627752,0.221561315282129,-0.0961321314331584,0.119495931548393,-0.00234730018289849,-0.00191220715626358,0.00795196749928879,-0.0270158407994171,0.170064307920597,-0.245359724984863,0.0808608310572876,-0.0231579272799269,-0.0221887794885972,-0.180424085372201,-0.139234342388303,-0.0669602896353942,-0.108354398773838,-0.10750500940909,0.266396812296268,-0.135361441760655,-0.112103299584411,-0.0239573390713138,-0.0810407017156463
15_Z,0.0554595511196987,-0.0498263413741667,0.0301196738965566,0.0600882987090228,-0.0877487174683017,0.215331976608314,0.0467120030114212,-0.0233525797803673,0.00354479081901719,-0.145661101442761,0.244478158800616,0.0425330935053151,-0.0153076244623093,-0.000326607316200322,-0.101519019910143,-0.0143417382818525,-0.104307147530025,-0.158145368334209,-0.0929358488138376,0.0798150686726416,-0.0995797759114798,0.110902249818386,0.0371745510811471,0.448782858156465,0.0613472350577244,0.0336470733974373,-0.168636397914193,0.0423702345396364,-0.22612682107596,0.0662953353299506,-0.0510398965086475,0.0403069998678581,0.0179836662190903,0.0167175487446353,0.0448222077446644,-0.176561226572461,0.244801900016111,0.117794053383184,0.000472512002653434,0.0145464278238709,-0.0570555982715898,-0.156575243682221,-0.0943163269426205,-0.0235409545914844,0.021114190012887,0.0139869210234727,0.0158556043684998,-0.109052698363404,0.00754423136141053,-0.0410992774852434,0.0412384428678048,-0.0220764845876305,0.0307992923309846,-0.19980670364145,-0.0670560245780434,0.0467592985628242,-0.0191233469806631,-0.221054825248934,-0.128181537025006,0.41856920425136,0.0493132696412703,0.0501132737085477,-0.116985962359168
16_X,0.146960244120435,-0.0269819702294688,0.106044620650421,0.169431450617947,-0.0456015274433973,0.190088096836093,0.188844012471758,-0.0418893925160902,-0.134987404943128,-0.176901188510965,0.0491187290323008,-0.160058076356512,-0.441572293746806,0.129990694959825,0.00940818650255479,0.0565964424659479,-0.073194978138668,0.0953948565176591,-0.0369517823916835,-0.00224984994413657,-0.0956930892813005,-0.0362399830994563,0.0750974995994079,-0.0363405900827956,0.0975506429933208,-0.0766837864632699,-0.017457131704402,-0.00300539784118228,-0.171793770936715,-0.061020360375572,-0.116582313492991,0.126355943612624,0.0425567171038699,-0.203974715563355,-0.00964108578609602,-0.0313763857268322,0.141897644105995,-0.288826779885657,0.245908500288876,-0.181143899580149,0.171072657952997,0.110689516790616,-0.114884403294363,-0.0683401913676706,0.102196859130254,0.0512817108732736,0.0630672604801392,-0.0177859681184444,0.0662665267824583,0.00740607622273931,-0.0545818097499719,0.081736078810139,0.0831666945287642,0.00762870947024668,0.093724110085504,0.0915205846759333,-0.0330303569845993,0.125316382377792,0.00832641597119872,-0.275587847526872,0.0916507318164538,8.07756753859433e-05,0.00800295755984323
16_Y,0.202654448359683,-0.0425830515074473,0.246270219891336,-0.0204115847765095,0.0556430557263899,-0.0181148174891779,-0.121472896706936,-0.00468969143001632,0.113776545847442,0.0120219935319926,-0.0761304235737154,0.203016085346815,-0.156362679882388,0.0806454849502334,-0.349460521670348,0.112776709984659,0.0195539308930328,-0.0624063604864988,-0.212004293228375,-0.218314121214791,-0.0200362557521629,0.211934799594843,0.223768772799992,-0.0487444485685936,-0.0137166796000922,-0.0411214155764111,-0.0915903928255242,0.0206824048411093,-0.0817498278545815,0.281362147229654,0.0139699421622812,0.021335705256462,-0.0191709259956018,-0.0468964233950099,-0.077408294794959,-0.0262240188306826,-0.275686502733325,-0.0267169680393298,-0.0734494724937688,0.12709342632165,-0.133455073534551,0.0431445717183931,0.0839793875396962,0.0520389107065258,-0.0727059007991392,-0.0455325050450015,-0.0261557229846351,0.0160554518306518,0.0784365724100688,0.029269022824142,-0.292733843434225,-0.0563661788479208,0.10001393956555,-0.10228918656919,0.135116146848697,0.127708275028144,0.0221430034392819,0.0627399584312036,0.0236815014624135,0.0400200693729223,-0.112956045810236,-0.00533400870228096,0.211138050238423
16_Z,-0.0601170594811278,-0.00165249688376767,0.00248785942439559,0.0671900956951977,-0.0793902073367079,-0.270075522758767,0.144424616912831,0.00661402954613067,-0.127557527403677,-0.143117651012827,-0.00726836460279847,0.254990054665581,-0.00602934989581955,0.0744836745011592,0.123450918360429,0.070145496146057,0.159370436098131,-0.0293564451202067,-0.158663865712177,-0.183626409130974,0.237816091550177,0.118343694326138,0.112763461764777,-0.252808088209581,-0.0268567784094701,-0.0687687295431642,-0.0320823786589282,-0.0590916562656632,-0.0283222315882273,0.0291456180115775,-0.0395265510636734,0.0580992618670878,0.0597011367006242,-0.0757749137035061,-0.0903907184106907,-0.0888108118140612,0.320564384721281,0.392089041815904,0.276959152215236,-0.044266567179348,-0.062009516264947,-0.0994819266988934,0.0534961175973236,0.00795639488024947,0.0187068417355007,0.0116206443758745,-0.0257376093505537,-0.00337517073696273,0.105048411149306,-0.142303897926154,-0.0910508906159038,0.0194271269141092,0.062427273572855,0.0413664509766266,-0.245783006427144,-0.121421833001525,0.0355817564468707,-0.0366424476837438,-0.08671799906232,-0.0711747589842055,-0.0143907410035664,0.0238064390555919,-0.014432359085843
17_X,-0.231361185792287,0.111244707554696,-0.0233808405114354,0.0416509778418961,-0.0680655879703528,0.166066735793262,-0.0454146565343095,0.0285906726597651,0.150393137448423,-0.188475507847397,0.115269227265006,0.0868354339375225,0.362529825820458,-0.177778983689213,-0.109466156561546,0.164279868285256,0.14654418480417,-0.204673664704156,-0.0189657770387127,-0.0617490406230542,-0.0586224580091826,-0.0391205115619959,0.178240727311563,0.141878715172114,0.0849688837979132,-0.0116724705244436,-0.0837556339945665,-0.14780366370505,-0.347385665973855,-0.0428038936842621,-0.029518060324061,-0.0552683732492816,-0.0681890781102143,0.0637717176392505,-0.00963640853143376,0.123036815124591,-0.108132829951483,-0.00986425875476294,0.113734376902211,0.0039389360554753,0.0229712567754924,0.158247590502232,-0.0136269820572095,-0.0147051869195499,0.0364090563767955,0.0160837350468089,-0.0238494393114754,-0.11490322759207,-0.00852922657638124,0.00463685567118587,0.0457376369417961,0.0180681497074173,-0.0825779318967869,0.0153269919085839,-0.084626837511377,-0.076286227095024,0.00329621050477714,0.16053576459966,0.122620383003828,-0.361978255750763,-0.000252619893794324,0.208721559493686,0.0268105083058888
17_Y,-0.045449151014558,0.0493996311436541,-0.0995430294329234,-0.051152128401914,0.0192775782878071,-0.120679043901496,0.0612941468620258,-0.00908136620862586,0.0750502900380469,-0.101446880208034,-0.0255595118602054,0.0602364709691582,0.037017821120393,-0.0533396837306457,-0.00487859829569685,0.0351510406588073,-0.0618841939229448,0.131599663324271,-0.0470832661366798,0.326579244093088,-0.251661661737264,0.156484831984932,-0.20735734312984,-0.0464546589765214,0.0763522204286817,0.0412893678909704,0.0946856238143225,-0.0883796123928309,-0.105483654846658,0.303862903140801,-0.255460921056601,0.157711107917556,0.026382262287396,0.117549271972935,-0.234982230927984,0.0887551681225209,-0.133092214955871,0.154994666380554,0.0424311320876804,0.00344202541980408,0.00767120562307509,0.0238362631575641,-0.0383293964364793,0.0923004398490794,-0.0109302606852017,0.0120938609012085,-0.0323295268776434,-0.0606950933691798,-0.0294526492429132,0.00792801401875683,-0.20012803446718,0.0219207813348481,-0.0976796433792198,0.177369350770076,-0.0340249468862086,0.215178050660669,-0.0400697656891496,-0.0579326314544776,-0.0634038671604786,-0.0695997809339326,0.36049779750282,-0.181228283821166,-0.119569200223293
17_Z,0.047023345263746,-0.0353795052628543,0.200101342282448,-0.141554127492415,0.139879421288645,-0.0826523560313659,-0.0140236286595054,0.0385745955058927,0.0354114658445669,-0.0477326002495867,-0.126076967445962,0.000495777921490779,-0.0200098305413203,-0.00103949209805089,-0.3354006486858,0.191767403855126,0.0340375655272358,0.334751821077532,-0.0485898487604229,0.014085561609127,-0.239641370269243,-0.0255538193516926,-0.0587845312423292,0.0498052828314128,0.0486964028102067,0.0190557290718649,0.21505224237661,0.033480614245808,0.0132943903473118,-0.249658842493601,-0.0458270985774508,-0.023428184873233,0.00501145432456281,-0.010630142776717,0.109284022434724,-0.0678883515076509,0.175228031926233,0.132899498573991,0.0762325136471494,0.114624550154025,-0.224011467466939,0.0174445558972047,-0.00775428542777786,-0.153114754653464,0.0318950666682612,0.0370552139557059,-0.00260116984316301,-0.0258180017332187,-0.0593487224957567,0.0690490930525721,0.116983263574787,-0.0523173423562835,-0.0400512523840629,-0.0948334262617057,-0.00188880364587572,-0.19605028719508,0.115825842913359,-0.298578735142018,0.262137733157772,-0.141455039501998,0.12593342326602,0.0282400018961073,0.0383374071251851
18_X,0.00963878094534016,0.0485164591658576,0.135445590103155,0.212207753500696,-0.0205231675768759,0.0739178306335296,0.020070199967499,-0.0707741543710447,-0.179951784049717,-0.116018002047205,0.203559034770718,0.1413539581332,-0.102139684090984,0.0143515411135046,-0.180831337482929,-0.126202007643758,-0.294576901582185,-0.159647920160252,0.202094583226838,0.310583237881676,0.363980835285431,-0.0809554746204637,-0.13927348162547,-0.27751583927434,0.0107867559671998,-0.0388981147074915,0.0183424649206102,-0.133829692426843,-0.0937864510079501,0.128917453698021,0.0086119414660256,0.00725969645891217,-0.0165483237237289,0.0730959649409063,0.0531849883506959,0.0761055681446795,-0.051373379710844,0.0753621212970409,-0.136661333112742,0.0301045023452584,-0.166006580178603,-0.00331386736076678,0.0104134676820544,-0.0733636777880364,-0.0742807241152634,-0.0371368384140933,0.0474482470702651,-0.060081726447633,-0.0131331137398632,0.0428294453559607,0.0289953871923504,0.00584083056844889,-0.0217002889240387,-0.0111956756457727,0.126768935432969,-0.178026769861946,0.151376605107272,-0.103690100238273,0.1808249202537,-0.0561518025018962,0.0548445768891491,0.113009895905398,0.0377446406568135
18_Y,0.144117213081313,-0.0402338055457291,-0.0541098458408797,-0.238377955079415,0.192446776856907,0.123049873813619,0.114518388674104,-0.0542742763371744,-0.0545922524458213,0.165381742889264,-0.164778983285401,0.0827776274743257,-0.153756527170983,0.115415414636133,-0.154823855371067,-0.176940932061024,-0.0266617007262669,-0.315059697059278,0.103521347341254,0.0777800843043495,0.0484181007548302,-0.0135815248018104,-0.0820613466610676,0.197266309051686,0.0648270458243241,0.00900390102229695,0.350261285829824,-0.0144655444684501,0.0641942554992344,-0.029102825603321,0.0167361311685713,-0.0370142214928859,-0.0858655079745692,0.129848967460434,-0.139373118876963,0.0799412868919493,-0.00292078813368496,0.197937516322,0.0622202567043199,-0.102544732785925,-0.0447124906548367,-0.0178498268558045,-0.0198658022447479,-0.0601238466250755,0.213282720911877,0.0405308993063958,-0.0301423688359658,-0.137597989882405,0.0494418637564569,-0.102435025358022,0.0179477667272028,0.0106474834890311,0.0208717265195726,-0.183674093933635,-0.245484025045247,0.11159950333674,-0.0460234533834505,0.213841803095571,-0.0685459730985548,-0.168464187012312,-0.0854750542953967,0.06110797900082,0.0719983072029276
18_Z,0.163052410505638,-0.134879175645179,-0.379672952486559,-0.184588305810648,0.0713747479319407,0.0140815677400715,-0.0698468651368631,0.0180739522516773,0.161462950988255,0.103311432135841,0.0139973654736195,0.0856163481069902,-0.0323270460782191,0.14438162194219,0.22671358784313,0.0878704947768173,0.00148250143397402,-0.190943884153091,-0.068162147183127,-0.0531812629849502,0.204424406528352,0.0728109073052222,0.0638412841595942,-0.0914209635614863,-0.0136389551411929,-0.0574806902121475,0.0217303137075284,-0.0671683799659443,-0.105377365017352,0.0060769724001971,-0.101562331732447,-0.0323200101607613,0.0293592853189911,0.0670957414522627,-0.0659469716874401,-0.0292052239029946,0.117175725312734,-0.275524320541216,0.102593527225976,0.0510963383884163,-0.095897204435716,0.0321197274066192,0.0537623852412961,-0.223512599199277,-0.0889665328908562,0.0249506247878097,-0.0151727287650708,-0.030601062989333,-0.0219907807171934,0.136058132313036,0.0105471505464526,-0.0176083895354461,-0.0750802264334126,-0.00882396612144029,-0.0123939893781543,0.216560984627471,-0.071957671150436,-0.262633605059708,0.392241056742877,0.0327431507762865,0.110794735832938,0.076360908206244,-0.0358767313326274
19_X,0.113719500452532,-0.06312255545337,-0.10390372726366,-0.0658569052256658,0.0411751029625044,0.427249807976589,-0.129189980620648,0.0434114164753745,0.29526275167991,0.0940720434515395,-0.090816003172317,-0.538128967702567,-0.0167101397833892,0.0681830852374767,-0.0230220105656086,-0.00912318514666103,0.00933619714267981,-0.0288312089754155,-0.0389026440338071,-0.0256612756679049,0.157129880376346,0.0192839893890731,-0.0170253479774101,-0.166997855091101,-0.000428009069144794,0.0352982187209539,-0.122887344345017,0.0219443562718332,-0.0906344910671796,0.0607002502857494,-0.0482381788804026,0.0663555412678494,0.0114484127762665,-0.0420311062392461,-0.0125079604862024,0.0126830779021545,-0.00399498958083712,0.365954638693838,0.0657940291810081,0.0404628251033996,-0.0977189347012206,0.0312798482797644,-0.00578472036015993,0.0981314953902928,-0.0537759084700488,0.00360586929163383,0.00343939105044572,0.0728934994481754,0.0577529264270705,-0.0732471605716493,-0.0455098686960008,0.0170336708967817,0.0849041883170824,0.0756569078913063,0.0137685138337292,-0.235489246558831,-0.0294266156802813,-0.0805005523917474,-0.0666494177465994,-0.0791756243801146,0.0591167162140636,-0.0433168818557642,-0.0184393346275022
19_Y,-0.276342448610159,0.0797564761402,0.33657433231148,-0.327435057987271,0.0772582089314097,0.11729271526383,0.0828547123186074,-0.0464009165939537,-0.173029525976187,0.249003933402936,-0.0325640736893069,-0.0348945744762691,0.252835714857624,-0.0820742106835733,-0.233172674988588,0.0236096926839025,-0.0449372060491942,-0.0417967511565163,-0.0827308963732256,0.0332709549889954,0.275387818214432,0.0766709894819571,-0.0157391923344897,-0.10013181683297,0.0203157006237468,-0.0509998391458716,-0.16801581249517,0.0458741113194208,0.105031185950169,0.0687283332996276,-0.0324188038923914,0.0832626397060875,0.060626913052616,-0.0812983263788446,-0.0709051254724288,0.0264712363361274,0.147624937956033,-0.192578180237688,0.0981126257312448,-0.00141571897995316,0.141569343204691,0.110417295955876,-0.113887822056604,0.0310798676971079,0.0375334484558136,0.0426768584671902,0.00187267953529867,-0.0609305670774818,0.0466355243254464,-0.111755429165492,0.0588107090974979,0.00460410795145175,0.0757649535216194,-0.0520361823767259,0.0256622886151394,0.142906258175165,-0.167399793706753,-0.151201772754144,0.0390409412011239,-0.0149329157321977,0.0483622750291516,-0.162859335679845,-0.143614812899714
