,PC 1,PC 2,PC 3,PC 4,PC 5,PC 6,PC 7,PC 8,PC 9,PC 10,PC 11,PC 12,PC 13,PC 14,PC 15,PC 16,PC 17,PC 18,PC 19,PC 20,PC 21,PC 22,PC 23,PC 24,PC 25,PC 26,PC 27,PC 28,PC 29,PC 30,PC 31,PC 32,PC 33,PC 34,PC 35,PC 36,PC 37,PC 38,PC 39,PC 40,PC 41,PC 42,PC 43,PC 44,PC 45,PC 46,PC 47,PC 48,PC 49,PC 50,PC 51,PC 52,PC 53,PC 54,PC 55,PC 56
1_X,0.0199335645102325,-0.0175163856361444,0.0900400634996403,0.05964814190537,0.0104764523546189,0.160355167495571,0.0303786529342269,-0.0178018388619388,0.323015244079679,0.058384983507551,-0.00112357587530589,0.23012776687452,0.078527147451919,0.00711833642066171,0.0535476546729598,-0.00423901728596675,0.00803375723161678,-0.192761784213784,-0.00204462768574453,0.00608319021437196,-0.236410529542655,-0.00199544728924735,0.0116944710469182,-0.196853152157114,0.00184191638845966,-0.00643173226175309,-0.296679231969512,-0.00511741256796848,0.00389727873633819,-0.242935711324268,-0.0208297193150425,-0.0017590398336437,-0.063495123726352,-0.0376645964700012,-0.00206979877372208,-0.197050831237615,-0.0436130436097166,-0.000910739373063678,0.14476804286462,-0.0502109857801076,-0.0176766959909624,0.490025175632551,-0.0192413245181591,0.015374760747742,-0.0666708459567738,0.00210166367968932,-0.0377226510460332,-0.345730688427278,-0.00872283595509738,0.00109819551587998,0.0146181445994522,0.0168176528481484,0.00850493284945887,0.187435083940104,-0.0350463201322768,0.0122110839891779,-0.069615917121138,-0.0416296107589121,0.00518650540633122,0.170927407385688,0.0027212181426434,0.0133334931394512,0.0433440646317038
1_Y,0.320059523265483,0.119680207642923,-0.00247755496476999,-0.342798952266777,-0.0729052016177497,0.0478858994866789,0.197847294769701,0.0456539727890579,-0.00470560706402314,-0.213579684697657,-0.000896778554344439,0.0370251480391044,-0.636369654575026,0.029172114804408,0.0886927478892289,0.122043085140913,-0.0113995397873939,-0.0267418460473842,0.141595961267913,-0.00840906332014906,-0.0410638159510557,0.132312441186131,0.0019179440753507,-0.0252642220217578,0.217200966334533,0.0299717060384861,-0.0572961425218308,0.00938473916351683,0.0384942106844728,-0.0226388452060426,0.227102470463005,0.108401597231849,0.00607561724746941,-0.00536251343335332,-0.060757058872125,0.0209635075762932,-0.0283914851383063,-0.077573117086505,0.0292834113925862,-0.0569177622352263,-0.0545449446563063,-0.00675255848010909,0.0437097154111166,-0.015437760492232,-0.00408097232684066,-0.134464656379287,-0.0777229324029768,-0.00403422497763895,0.0601165693530622,0.0769967831865967,0.0164768852301953,0.0394188780573752,0.0134157733132537,0.013843544542897,-0.00419373380818428,-0.0942452025487577,-0.0863604423451454,-0.0620007277354999,-0.0512050992512869,0.00749611298469199,-0.0267124741434313,0.0613923888234297,0.0136733575174528
1_Z,-0.0906635743145256,-0.383578288634413,0.0136882536209187,0.10320970271919,0.286849250150221,-0.016650976374891,0.0867006202469334,-0.0719851799939394,0.000898232925986661,-0.0139439260053166,0.0403763179874947,-0.0214290142938468,-0.214867133379688,-0.185978876371011,0.0316807867895099,0.042365128511614,0.0309404229458023,-0.0010018173643729,0.0386453221095827,0.0413083032179158,0.0167904485774919,0.00864691287130682,0.054102714044265,0.0171892865600244,0.0774319228795533,-0.0299776004368082,0.0127794793917352,0.02815288574137,0.0351642532762434,0.0361342267469505,-0.0864966377594768,0.0119352953344661,-0.00974087587677796,-0.134620464231054,-0.102631424017472,0.022856443137544,-0.143155485432085,-0.0631140133248583,-0.012353024319346,-0.092116534738991,-0.0591099934797299,-0.0630638461889703,0.316819449810667,0.0987188008170805,0.0178656834217158,0.521428538410108,0.29520314867938,-0.10726076726483,-0.0459824588221067,0.0290223006398601,0.0417927846324563,-0.0352508368478583,0.0459234229066504,0.0488818220591398,-0.0797068070839385,-0.0431068861952531,-0.0280749841380577,-0.173324513049774,-0.0962423389993661,-0.0094862702667895,-0.113272111635508,0.0661803714534784,0.00850412822440882
2_X,0.0180388077925733,0.337300117126614,-0.0354758069936917,0.0448653872166245,-0.212724054733041,0.0329203694301488,-0.0236383745126361,0.121889975545534,-0.0152203803098315,0.133216145193595,-0.0996192788394425,0.0510424208745667,-0.201388078876923,0.184533789939287,-0.0375917509425368,0.160660357129457,-0.136769349511154,0.0549667445246612,0.0726177143360829,-0.121521021555247,0.059138477556696,0.0336383711316997,-0.167941117247188,0.0336558978061918,-0.0458491118819225,-0.0199569882664496,-0.00452121935302197,0.00637506908928187,-0.246198096843049,-0.0234059078824314,-0.164819306218402,-0.155032122898036,-0.0908088750109277,0.0196636012481528,0.16333260860287,-0.0665892776661398,-0.0134633772892559,0.180757129223898,-0.0460679396982314,-0.106349015928632,0.168153062061774,0.0644501798036639,0.148856125207209,0.0917609023802276,0.00415110970689311,0.317772910048025,0.069437756146596,-0.00534002763013528,-0.0202321979554139,-0.00127460479918273,0.0408306340969512,-0.0225913507268958,-0.175833520804285,-0.0332351037994757,-0.0318255798724669,0.163425748532471,0.0386400429528111,-0.0547692681064695,0.142839700513231,-0.00376382417751226,-0.270778827023683,-0.286560634575428,-0.0177757632886471
2_Y,-0.141134130228669,-0.348276369868181,-0.0801517930524666,0.275782652664028,0.477061904433116,0.0467955751829737,0.0847786351536736,0.131280451460536,-0.0687511942837398,0.0233003038607976,0.0173319086601477,0.0581275283078199,-0.18670291681224,0.148864133019063,-0.035218782452495,0.111157095782395,-0.0219501301963116,0.0343436199527642,0.093876759754351,-0.0289858129410371,0.0199604086439754,0.0359484288928029,-0.044222053824691,0.0249997088969896,0.0951704308629674,0.000500055215553276,-0.0301909023976004,-0.0461061180253267,-0.159308885988955,-0.0219107466813495,0.135857003668362,-0.131519872208345,-0.0160110037320882,-0.044476524470799,0.0803875261297857,-0.1144959253495,-0.00875729120143613,0.107454674578776,-0.0419114371057433,-0.0623738840108853,0.0883854892839897,0.0798798534574309,-0.0788964104746046,-0.0229050271736632,0.05715814620203,-0.323380704121536,-0.158082805817181,0.177867474594606,0.160005725550723,-0.050198945368941,-0.00200149765395571,-0.134360012594819,-0.0788238557420131,0.0169242850625607,-0.0106624685329054,0.122696194537773,-0.0918685425215612,0.0170241934171625,0.0828689228380326,-0.00303791773345285,0.00394923086596457,-0.212557501027441,-0.0105068573371991
2_Z,0.072887828599459,-0.112986053373934,0.178574303331525,-0.0571806472306789,0.161382569646578,-0.0818192782679708,0.00810852943748129,-0.0366005579897946,0.0465146659890349,-0.0482544038814055,0.114976568099101,-0.0825587629970034,0.061376920462713,0.0300796166002718,0.112820864596848,-0.110002936855923,0.0239532223114315,-0.0651798647651003,-0.0572230189420487,-0.0793295270117337,-0.0816325924081538,0.0404258864315889,-0.134964242794242,-0.0480424139759051,-0.01098341699529,0.0258625811975993,0.044445182513713,-0.220200611781977,-0.118314891365599,-0.13311814472201,-0.142986227440247,0.143403420217259,-0.0762820836672742,-0.074782636889281,0.0272229528265599,0.282776440291449,0.0492841769312543,-0.0226833338084473,0.0364416369914605,0.182277047807956,-0.0120503043318861,-0.0804106911973944,-0.0119364826504199,0.107324889559281,0.00266850177746385,-0.108871349579442,0.00110611889683795,-0.104808061832549,0.264622484460116,0.205872981457391,0.0212781886225322,0.466016907875972,-0.161989344239888,-0.100668314903034,0.0309155101962736,0.0089949205374101,0.128342496579291,-0.0276982872010868,0.00494984937064153,0.0758209861012924,-0.305795272755007,-0.176211435804828,-0.075163058058215
3_X,-0.141690900892921,0.00905339997144754,-0.108355522331309,0.00926967485497565,-0.000996360649501885,-0.0401403752158392,-0.0862545108599426,-0.020074358370019,0.0311877852364904,-0.0411286792702873,-0.0505715154102814,-0.010391411737823,0.027909653666113,-0.0453053407850783,-0.189251678554594,0.00504796873294122,-0.10835998257807,-0.0572304284307562,0.129989746303156,-0.148247341968624,0.0499322697062007,0.14685711620158,-0.0875786587561004,0.139853974710615,-0.0380704006553166,0.0328701579727487,-0.0316321129027104,-0.289149358923828,0.0681902399620602,0.100537018039176,0.018860886975058,0.363668857165022,-0.0370880381322171,0.0795443710810512,-0.122594758420751,-0.447925713970373,0.105148756979114,-0.074722687962368,0.000315913180957743,0.172225447563767,-0.0310821550905402,0.11675450098195,0.0232238876485226,0.0597218108796122,0.123041034677073,0.0296869429243883,-0.0165320975932741,0.231007956955499,-0.132533746629947,0.236680995865842,0.164321116743432,0.0986894884642371,0.00620721020784117,0.212670680522618,-0.00332142545009896,-0.0542089404799029,-0.0710643543736433,0.0577272784427038,-0.0464697588290666,-0.117021600293417,-0.172032197155264,0.0303512848689978,-0.0595210148113322
3_Y,0.253670170958942,-0.166652277988575,0.0669664300133017,-0.0250569048936716,-0.0582851142933925,-0.078515308473615,0.265379419743257,-0.0812471864398899,0.029616743820168,-0.0206993068018961,-0.0258840932593204,-0.0952533467399727,0.0653327572544184,-0.011474679145422,0.056319674068149,0.0465405560413037,-0.0134383414697,-0.0372241098025351,0.00290301114383024,0.0800786943777784,0.0139232443560138,-0.0617592441877631,0.0684233319058836,-0.010970348772798,0.0745954116412743,0.00458812424314966,0.0746144027709124,-0.22624098710048,-0.0542950378831903,-0.0568696913322441,-0.199377634753456,0.0328420970376299,-0.0436863895602762,0.199466063251284,0.00520231714052627,0.0382237219945076,0.156681305720586,0.0131403248569011,0.156450898598757,0.151777180865839,0.0669888569840154,-0.00955469914747427,0.003484511106366,0.0420690705377313,-0.0418052999194704,-0.111138841071306,0.157587025086225,-0.0472618924216979,-0.194882829044832,0.0110049472797322,-0.0467337347281862,-0.521558450170906,0.117292346842292,0.00202807087479553,0.242350706940365,-0.0278051749451497,-0.0563021759168106,0.147224986483185,0.0134710578568418,0.0448006910047087,-0.248691883126349,-0.173606288724085,0.0412331193137677
3_Z,0.18357644986332,-0.0523021595455169,0.000739467786368506,-0.0459786589725574,-0.00465778290272906,-0.042528494796838,-0.0257496409527899,-0.10457188740481,-0.0808966981084898,0.00129996006236374,0.0739522487318416,-0.0338963072262899,-0.0960120250143299,-0.17834768927235,-0.0246613262975772,0.0940738950003225,0.0884283095952312,-0.0581873555221377,0.0119153553299907,0.105894808914952,0.0585466083469459,-0.0150997916569198,0.116869393055883,0.0223293088719244,0.0462206515193153,-0.0578763352849679,0.00371191564129065,0.157664657422858,0.0968438601307595,0.0877141243232457,-0.496286956317804,-0.469312256222579,-0.00332749634567666,0.103367432461293,0.0453418178857692,-0.285404981467696,0.017915658713449,0.0275351939543874,-0.00286409793736906,-0.0142585810526224,-0.012809079425817,0.0975159910273142,-0.0818565885363521,0.0648587405758875,0.0664932958179441,-0.190831558625454,0.0878349981514767,0.132739218724195,0.0375790396237174,0.0728180850640741,0.0334970465729255,0.334148945887859,0.0934842459181267,0.071896971238127,0.0167102272896724,-0.00896005747138298,-0.0501260017639143,0.00787862276693206,-0.0148427479433628,-0.0604953751689188,-0.0462770948122604,0.0298182934951363,0.0672041862846282
4_X,-0.219060935670541,-0.127498268356585,0.108802869807274,0.127460792104226,-0.0132177595101199,-0.0476121932159226,-0.0614685710488781,0.0880505651382156,0.021440703832602,0.0646720150841284,-0.0669570421109113,-0.10339524521978,-0.236322422325815,-0.00159614499343591,0.0410722314265924,0.180136827745301,0.0223652436933373,-0.0655093790550867,0.119386834590675,-0.0644316595243638,0.0919709245201736,0.159003365071751,-0.0504499864068386,0.0921999246912802,-0.108330407491073,-0.101292680596831,0.0886170350529672,0.167987868146207,0.100716535653878,0.0239867620316124,-0.173375131891889,0.0936339671458222,-0.312996285547159,0.175200731074303,0.0167085745881026,0.131341843574632,-0.00655659112290034,0.0271528648811059,0.143829718306799,0.0339486038873557,0.15441127575534,-0.0778981304940021,-0.183995784592987,-0.110281203695629,-0.127968239936533,0.0393734418660766,-0.361617202838402,-0.208132858757684,-0.204628788637097,0.0565639529464871,-0.0855442481522996,0.0583042735181031,0.179269357448308,0.0735821902361809,0.0581756043827355,-0.053065409110439,0.157225709930708,0.031869795845427,0.0504639297494526,0.116357332742136,-0.0217815205351069,0.161071090143505,-0.0613706657744896
4_Y,0.125952682149965,-0.0442984577395425,-0.0949436823010008,0.0861051452159573,-0.00920801910763727,-0.00560558435265293,0.11952308447536,-0.151447501613839,-0.00851660617775866,0.0859811452067779,-0.0758285284582775,-0.0312897408537498,-0.115548360045945,-0.0206471564335751,-0.061581247810298,-0.103724293470657,0.160052907816977,0.111643774115707,-0.377710496330189,0.249594332853675,0.0602605357717562,-0.380617136704064,0.154835768913236,-0.016825426944777,0.0945958839710486,-0.0677632415106772,0.0369746058472894,0.0490158312516149,-0.127839154698939,0.113109059877864,0.0717558232036927,0.196519718819729,0.0222184786572624,0.0957544729161762,-0.0019760017391041,-0.149773925208992,0.0732324651519417,-0.00620523961096059,-0.0922863225679525,-0.0435617112417162,0.0451962118980593,0.142785646808533,0.0971313662367459,0.0309080660270167,-0.00880696720834243,0.146060463221265,-0.462243839665332,-0.013898509615961,-0.0191353291274003,0.0908590101535144,0.0299153312643677,0.106017516801685,-0.0101487119711516,-0.109064469870803,-0.00864579859853339,0.0223207090947691,0.0871284887463208,0.0242324356604993,0.0600582003839642,0.0228025786341524,-0.126415189944211,-0.0327390734118833,-0.0342460168109654
4_Z,-0.0595679426226138,-0.0599876496899541,-0.0299335745296679,-0.0392950898192952,0.0985402502972016,0.0535303182699208,0.0699392478092645,-0.13226073814612,0.0906460155389442,-0.056282050126509,-0.00109298097328114,0.0647862294094839,-0.0265668798305697,0.0410856753602606,0.0250166406101068,0.0229009365255109,0.0548896831243445,0.00251590338306507,0.0972599636281436,-0.0137429968498168,-0.0364936729297448,0.106916212981576,-0.0222127158925155,-0.072830482422173,0.103791412685619,0.0663268442145369,-0.0937036829479394,0.00159732390325303,0.0117049272782948,-0.0416877185613855,-0.0685390152607257,0.102484912183567,0.209836249900357,-0.0513240057053423,0.0987386806645438,0.101114584886485,0.158350952403483,0.0594586203545816,-0.202746608440041,0.043792865641308,0.0265895957092474,0.0714914510214277,-0.026649253957312,-0.0160148470485975,-0.0456542382753317,0.0089909998212574,0.00369900897080197,0.156596288004543,-0.580650608938998,-0.379478293001406,-0.15844905730996,0.281651164564417,-0.141256626957088,-0.185437168678868,0.065508705735588,0.0584854945771485,-0.0351341235234035,0.0628595524668073,0.0649074177990507,0.000642135220138065,-0.114684491904863,0.0791357380251998,0.125894511374046
5_X,0.117255953637351,0.103649038998866,0.112573239078276,-0.00674492251375207,0.0318927816028837,-0.203660626090801,0.00856044593899289,-0.434635474497556,0.0210276948731985,0.156795039701329,0.340844698318072,-0.221206539807752,-0.0862945651425203,-0.124951957580165,0.050819686371246,0.0695358438697093,0.198446976717974,0.0129920355410062,0.107850645272402,0.0234014546785263,0.0342304958529037,0.129589132166064,-0.0307808826271039,0.0745451271494139,-0.284243634202846,0.104207273021507,0.152013600518065,-0.213075934877483,-0.0638815885768072,0.00464834547371501,0.251995535121024,-0.0350822770240553,-0.128302017416629,-0.0599813303728132,0.0152434363029314,-0.121660123796427,-0.0647477619653354,0.0748854201865418,-0.0244980403176751,-0.0808318992584006,-0.0229548273078877,0.165230935065972,-0.0248430304998593,-0.110467652617516,0.00862720485604525,0.0217209573146671,0.0111715439811108,-0.0224020359775861,-0.0149396997103518,-0.204623932116839,-0.0462042866574819,-0.002510738461742,0.0830505875369205,0.04877205371051,-0.0877126497532206,0.0665864726330171,0.107841483841668,-0.0240232695891682,0.0969794821919189,0.0142505187876678,0.0866458833259706,-0.122980573822318,-0.0396387510553332
5_Y,-0.125342150675552,-0.0520487608823294,-0.134738310069556,0.0705594877286436,-0.0487590169233469,0.0958274358319819,-0.0263758855897972,-0.386789720078686,0.0108566411257852,-0.0922381335493505,-0.225959553892366,0.038594345977378,-0.0400307149728946,0.283445478548891,-0.0602497221766241,0.052286291115837,-0.0273225208113593,0.127259867804679,0.0323315324771223,-0.00779058836464829,0.0883169060822344,0.157857639638836,0.00743885384285484,0.00994318771597515,0.106864818725795,0.273337122443904,0.0147432114404303,-0.139562358686164,0.0589611625848549,-0.14651734723724,-1.72564571345067e-05,-0.178149676559039,0.253947518718764,0.093177306148843,-0.110109220098113,-0.0185001714992441,0.056951490079155,-0.111411022208633,-0.0859715487861179,-0.102855935034529,-0.0191351028386822,-0.0519108364316889,-0.133252854104866,0.21705100886679,-0.118655650107301,0.0139905964428268,0.00146932877785927,-0.212692151774793,0.0574896330399162,0.16126590085923,-0.00658321346198572,0.0133957600222412,0.237230657490035,-0.0698267200532102,-0.0712549543416447,0.0375016294525669,0.282740310393895,0.0335458752291151,-0.041939281195422,-0.0217651153563693,0.0424798127635957,-0.0682866790143686,0.0051813618630034
5_Z,0.00931024062233997,0.0701521931126815,0.204807318350167,-0.103278180852246,0.161051936422232,-0.117270712899356,-0.182915988316657,-0.147299385036769,0.015358322182038,-0.187826796470665,0.0882428191595023,-0.158525147813042,0.144335959434001,0.251339397744528,0.219047126431618,-0.0821494934276793,-0.0878016373083239,-0.116565435911643,-0.00911263260274612,-0.0481265904367754,-0.0435459458198423,0.0538935706883898,-0.144130659824157,-0.027290263617587,0.385469109614936,-0.237543883184575,0.0266949514725652,0.244104474202779,0.0157700484761997,0.0558756881268566,-0.0350946413717421,0.0636867808412186,-0.154750177582652,0.0690761196372524,0.126343618687862,-0.169834484426642,0.0636661510965579,-0.100792303356759,-0.0796046841307492,-0.0989360628950107,-0.0892841431220355,0.0836156953900131,0.0860939629805878,0.104897265779032,0.0741249650352728,0.00710218786353483,-0.0383560302100326,0.0797208398987746,0.00686943771483479,-0.0619353656336259,-0.0718144695739516,-0.204487378370932,-0.0160880587842023,0.0209870908094229,-0.117421386987421,0.063590505817375,0.284648467191822,-0.0160259461575583,-0.0307835356631526,-0.0939043188931419,-0.0326727064025504,0.0570670265197899,-0.0317748242199466
6_X,-0.0663195556981622,0.11565863674653,-0.131131900742503,0.0692396290940677,0.00131825248299731,0.0979041302156317,-0.0492637739128232,-0.326132422246734,0.0194906035294065,0.155047545562277,-0.00424876860785035,0.0942744631734037,-0.139341293112359,-0.0355390015193151,-0.0827217049935816,-0.0219303685254602,0.285856423223791,-0.0421387890968898,0.122732649860377,0.0825816243705972,-0.0458402566264836,0.120134214048366,-0.000458564457019417,0.0977502841326224,-0.0790967984895982,-0.163286736155758,-0.116009280708018,0.260379495787736,-0.0298587815025598,-0.0249711303311962,-0.205738292519738,0.215458385749733,0.277206234099453,-0.122968521923493,0.163071560936717,0.0910628809718185,0.0430123927957383,-0.00912278738410248,-0.0145693610228362,0.184162734937023,-0.110329136966929,-0.11448430496512,-0.0294600955986856,-0.0992492785377112,0.0435719532842911,-0.0942392828595523,-0.00330625189291132,-0.0746285632508262,0.213732193521936,0.0236728983051832,-0.0312764218398244,-0.239113338748493,-0.187081959045447,0.185195440889316,0.0279089651970791,0.0194423847475711,-0.00411973357248823,0.0126123552137365,0.0107666454852729,-0.125443633109457,-0.161490854629977,0.0507868762679353,-0.0991209100367178
6_Y,0.0903667807905563,0.0260568800296795,-0.0629365448825551,0.113135965633732,0.0809970764553335,-0.0663019799672895,-0.116493666682868,0.07826679354246,0.0199079592983795,0.155084261108977,-0.0178542917179098,-0.0341728780979384,-0.112779090695993,0.022443667120619,-0.0478666364723436,0.00948138060811804,0.00813035575386972,0.0871435851268146,-0.202812165471597,0.0790445312914857,0.166616388432935,-0.0504382659966102,-0.0807536120837532,0.0392250132212361,0.128118107650921,-0.076166362266801,-0.0175466298236932,0.109117593070242,-0.0981251878535444,0.0187374831929886,0.27342414069834,0.00966612042375602,0.0352391723808878,0.100882784347826,-0.00241985811978078,-0.192157365671764,-0.129181130323957,-0.067608889115183,0.340360994783905,0.153107945668137,0.00623228780304489,-0.10153677028651,-0.215048165552952,-0.0393542622916497,-0.107130849336465,-0.137726043974638,0.393523659925957,-0.226077500998889,-0.215341768068524,-0.0469406413121818,0.00379929442153982,0.135168789430734,-0.210138291581471,0.00899939073521724,-0.0250444982756087,0.0787421560645186,0.180468482607815,0.0110753929508777,-0.159403360819257,-0.0630739907462702,-0.0740983469157115,0.0156612287508037,0.018303382081997
6_Z,-0.0625725603620444,-0.0209513601012143,-0.0268255820960364,-0.0274762973134827,-0.0334180357443127,-0.071551453998635,0.334647861599644,-0.188591641606801,0.126061033966329,-0.0602881371539913,0.0340892180232328,-0.0317154985905477,-0.0149933262718889,0.262432728480248,-0.0490653337966205,0.0385182522437677,-0.208501853478148,-0.109711199430006,-0.167476579673537,-0.0701451256442135,-0.0504044787677787,-0.218237162361929,-0.0236579328928214,0.0365448525782244,-0.05080833138501,0.266022366458411,-0.149341741834335,0.232789493918435,-0.0238599448312641,0.125516149381576,0.0354246232900998,-0.11417092909621,-0.20755387368578,-0.168689441816252,0.00418952484018915,0.0818718432051631,-0.0518254039111685,-0.0247739253245939,-0.0453696151621045,0.360381699609747,0.00394223558536746,-0.136415339294664,-0.0362493016178439,-0.103208569162805,0.0330371832031925,0.0187585738062667,0.0282288090062895,0.0736704189824133,-0.0438505050860672,-0.0386935652241308,0.10176240483257,0.0524736555810933,0.107183260740307,0.302478760528501,-0.16345147606176,0.0348505432792558,-0.0029053304089983,0.0165876642149176,0.111848947760048,-0.0779828589756853,-0.0236633012489891,-0.0028147510668104,0.0778996593632278
7_X,0.00777666353869305,0.0655829252389992,0.104479783396685,-0.0115751061406432,0.183409969614152,0.0214947624069552,-0.0111030985087946,-0.270917359838069,-0.0461328725791649,-0.0138252406208534,-0.080251268343523,0.0403174223254339,0.0171745578853407,0.0676479137917793,0.181389054771095,0.0601821644745974,-0.100382839910578,-0.0678493903351491,0.0690179990220318,-0.00793278803987823,-0.167502753763301,-0.0269093046800681,0.0548867266591165,-0.161286765710646,-0.212070483328625,0.16752143747835,-0.000852095165943589,0.125097165182468,-0.0905837977393251,0.086277753882233,-0.00256831176796035,0.0620097800626095,0.0078845637047722,0.156114660206621,-0.0428820530968146,-0.165645826268351,-0.148630600849548,-0.00408084287229057,0.295836045774124,-0.0719571903647806,0.0563648814356585,-0.166202567790747,-0.286625034409221,0.172666774948695,0.00335966282999903,0.199763491245523,-0.0701437458708551,0.183106863651249,0.0907219758965996,0.0242489815722039,0.0826104078040185,-0.0513948121025318,-0.236810993975464,-0.243749438653547,0.142531434083198,-0.149198220602919,-0.169596374926451,-0.0225956161904614,0.0728845059883061,0.0336935592269785,-0.00912531257157495,0.125960013499878,0.14836820541976
7_Y,-0.050851531094135,0.179674596602646,-0.148625517365425,0.061843650760043,0.169594836729429,-0.0246563738920894,0.197693817140898,-0.10167631725838,-0.0343709114021869,-0.0654072928798644,0.0274072822168868,-0.0452196928552502,0.0355324176391928,0.00121342571202636,-0.0797660535141545,-0.162951540205102,-0.226785009636148,0.223354250343187,-0.0172010933661678,-0.123494736087317,0.107913314569114,0.0264819531693211,-0.0565998725072522,0.0644970648876461,-0.25186938160022,0.00880881325417565,0.168036021732558,0.294946321569238,-0.073308852557454,-0.135456464936149,-0.0538168405977813,0.103185904871163,-0.0518109747115518,0.135117895249011,-0.117718191186063,0.00464717437242738,-0.0094208097210425,-0.0382744665596124,0.0578895109596224,-0.160006190708838,-0.0643918012861054,0.0968394415940516,0.371309847130047,0.184621312738058,-0.00559254392678204,-0.328882065262247,0.0480900239456914,-0.145255456011346,-0.0317840549852341,-0.067127278789829,-0.0834022604058468,0.0644501686386659,0.0457804230375968,0.020926651642423,0.0926428988706938,-0.0553159080885465,-0.121109434350047,-0.064196557203025,0.0317249945605779,0.0908119103017898,-0.0836316125434744,0.124590820288405,0.0403503429680077
7_Z,-0.0602140247848686,-0.0904438277279126,0.0686527651010471,0.0370172823199878,-0.0924335201236745,-0.0323037336777926,0.212322168388165,0.257674913422137,-0.0325232541041119,0.0618300029112874,-0.127082799501441,-0.124589491547921,-0.115414849691462,-0.115381996958699,0.138090279936911,0.11073680017518,-0.0809902300154229,-0.161853523142551,-0.0222214328898563,0.0549906669170915,-0.0334913817026551,0.0393228698593091,0.0537588206333036,-0.0593365252980102,-0.316227574129941,0.161249185161733,0.141510331048307,0.146263043051996,-0.0262951417747679,0.0818574210171781,-0.0077333202709528,0.0698196079502291,0.0536467090727851,-0.0222787448135355,-0.0171227293884828,-0.0420841853063609,0.191175217265534,-0.0712547584790765,-0.264875039203775,0.0969459407387899,-0.215617963142222,0.298158243457525,-0.151651609998466,0.172065970083329,-0.0165589496708437,-0.0548273436854964,0.112456870676505,-0.0212782692384829,0.0785076435686259,0.0170689157310224,0.0126524405815168,-0.11542624376475,-0.166199221309552,-0.16691544521964,-0.0875928864717315,0.121733244470646,0.265665145261198,-0.0206197349724858,-0.126809490917513,-0.116029640209007,8.67971946629477e-05,0.108813484292739,0.0116061028446794
8_X,0.217180275399956,-0.0252028796987116,-0.140508493945404,-0.109490550469521,0.113765566105686,0.061525627496581,0.162604292877556,0.0843523536652291,-0.145115372794314,-0.191828433129337,0.00815468050970625,-0.0363641854118074,0.0823968191918928,0.136541512438785,-0.0931210269270273,-0.0652418160701834,0.0370329031916841,0.203351026863704,0.11522587536798,-0.00577716106782172,0.165801761810754,-0.00509572580647397,-0.0128606265280365,0.149228198398038,-0.153395345824918,-0.247684080047968,-0.0448044844164557,-0.181828203674073,0.115787514928015,-0.0188300550298274,-0.0712560125985539,-0.0488985707046556,-0.0908828994655297,-0.12564184548133,0.111869807234036,-0.0966646291622945,-0.0343756383186586,-0.0937543186681275,-0.0504076177392689,0.214738502744851,0.0430262867326431,0.0323346296663536,-0.205376391494996,0.258728416195088,0.0525246531831062,0.208631843133319,-0.13091353757567,-0.208529954661382,0.0719863950494211,-0.154324885501864,-0.171298408480937,-0.0229729826526225,-0.220736396471612,0.12009519025524,-0.0634136151253833,-0.0578997368002262,0.0327410749568979,0.0193956051671777,0.00591183291681954,0.0831509845766782,0.13775695171389,0.0828813191469847,0.195773980826895
8_Y,-0.137051284430919,-0.158620598364819,0.0576094295789371,-0.1458527387313,-0.178536733625324,-0.00586535904766777,-0.0679276799070929,0.0199677333741937,-0.0870108307343381,-0.0782461338737772,0.168141363772618,-0.0184969545892036,0.154110297382154,0.0640438204742436,-0.0297760143575156,0.311939074356531,-0.0296203069455446,-0.115784794670239,-0.0260190119035823,0.242840285738689,0.0735559171012878,-0.037583741276516,0.116133776161798,0.0590663085798909,-0.037769422836643,-0.0471316978846176,0.0967550742028649,0.159958569184359,0.079121839614456,-0.202956938440241,0.247825256724578,-0.010054846035923,0.0882186991765387,0.0890027323194311,-0.0780829944856966,0.0706947246989483,-0.0470462919458694,0.0752270177684049,-0.0364645817246824,-0.174424287376037,-0.191829198138921,-0.0623914785873267,-0.0829165399143136,0.248830842827993,0.0344092412309418,0.0264776822292884,-0.0697504493191143,0.0176483926660575,-0.0846211212568945,0.0613001773489044,-0.144485788736961,0.0720224390413333,-0.187785457797387,0.34844921704407,0.0637746281879779,0.00496871151779365,-0.135874785764056,-0.00376934843000101,0.0618636520006735,0.0135574723628343,-0.201883077542711,-0.191026938002436,-0.0208569499901408
8_Z,-0.0665105983647218,0.0809693250898215,-0.042688298946205,0.0266624969073774,0.0622592546955643,-0.144766369578988,0.00779498115902325,-0.148302895918059,0.191724617107246,-0.151336758413641,-0.171810869160782,-0.0675099440489657,0.0210334002876944,0.264843984878358,-0.0208291909099452,0.216129288164448,-0.00605014165552802,0.067036450461122,0.0825463228676901,0.059307653569074,0.0365432288458036,-0.0823195093312804,0.199508185676818,-0.0141745181897526,-0.0729957716158917,-0.420597689233882,0.0750967297470908,0.00422401202348024,-0.0810517021381883,0.131681972240383,0.0578357699790659,0.0247378660826474,-0.0621206298668743,-0.0296860643884381,-0.0886650213444411,0.12149998723179,0.0473232137090106,0.0577990924034893,-0.188668768469679,-0.0179567863675111,0.0130033742812005,0.196540086087623,-0.174565727758728,-0.183414308184879,0.0334992438831585,0.00307747103614836,0.2886264874187,-0.0158845361726381,0.0376709709667509,0.151505710014727,0.0472325191985078,0.083926123531401,0.0454280967345693,-0.155710712858054,-0.0474267081214301,-0.099161237883841,-0.233474280336608,0.0652603441609367,-0.0718229436361774,0.188797577009002,-0.0106864704313896,0.0228877783108199,-0.143825162434009
9_X,0.103734496842597,0.0145321187037669,0.0886235909162432,0.100706651414985,0.0559436426693146,0.0126700856325068,0.130405707619022,-0.0115597658848525,0.0521015131729162,0.0340162151105589,-0.183186129774826,0.00895588643893167,-0.0764554662713771,0.199149018987473,-0.0145923848702146,0.0411082652596024,-0.0932143284712824,-0.18965451960161,-0.0270544368692962,-0.00280159243886702,-0.0993424171087846,-0.136387858619931,0.171573784493625,0.0669264103779395,-0.240479396609879,-0.241324585407735,-0.0981291343389187,-0.232486625264304,0.213093868446779,-0.120864723324055,-0.0606146000055559,0.105039480371311,0.0500836634139275,0.210083544985068,0.122671610136372,-0.0154043938849844,-0.101895534702105,0.00879276232534559,-0.0151139269684176,-0.193160832042687,-0.103942799020607,-0.218314780720155,0.142012822231572,-0.0549118081047928,-0.0413545907495617,-0.0520753693287065,0.0359213004515525,0.123070540165527,0.0329575880352952,-0.244117747195358,0.175930594773688,0.134094975947097,0.00266783964877339,0.139959163201049,0.174166979510445,0.152116229004498,0.233101741956266,-0.109661840010846,-0.123044430244645,-0.0855053007730134,0.126984712768434,-0.023398468695869,-0.0531470177092812
9_Y,0.0189969305276387,-0.159004387163769,0.0841572835319286,-0.242565462419,-0.0388315140699488,0.091100713410539,0.058605625451087,0.0242733839035698,-0.0143782245009863,-0.00784026282929249,0.0588534601985402,0.0562079930420468,0.141290022792836,0.0634846722424074,-0.0597580860852528,-0.0661216268456132,0.118704511226396,0.11613335128346,0.325339981834377,0.114973787743795,-0.0265251405123,0.0154168216344406,0.160773973853606,-0.163930147559265,-0.197124863839021,-0.0694224269575777,-0.134495883305793,0.148714589808303,-0.211731513370875,-0.0762938394638769,0.0401666511467558,-0.0230955512456856,-0.00649740521317493,0.0990049636635938,-0.233792568726682,-0.105924564843615,-0.0631473369598826,0.0540410443126614,-0.0732909537077889,0.0706909824307581,0.381896800654944,-0.11499223109552,0.184513184858208,-0.108171185353867,0.0285763045285606,-0.104317723382824,-0.0114727647781811,0.0624357905993849,-0.119132748024886,0.148220696106629,0.0503571311965829,-0.0207926293610449,-0.0870863718536158,-0.0141237157352787,-0.182732009344202,-0.0174951166590382,0.314219217600058,-0.0868000874919021,-0.127662086783751,-0.0212706052426479,-0.0121650036503378,-0.0374568432795738,0.00829301207293805
9_Z,-0.118395065330978,0.113695061149162,-0.115969413000924,0.0400957964354309,-0.00581139779596926,-0.0190313876238489,0.176287321429311,0.0542647222921241,0.257395962361859,0.0815185267409226,0.0845292527592512,0.0728581269150899,-0.0219525720171666,-0.103970575947855,0.00595058134283577,-0.0802580061910311,0.00617236435185875,-0.0639110848324955,-0.143969721930215,0.236103228942589,-0.0720597900088111,0.310608935898423,-0.0833326127284013,-0.0359668440182789,-0.0913287985972647,-0.385006748931199,-0.0318447291306331,-0.00972857282730971,-0.0646577750669546,-0.113253150327844,0.135853030055841,-0.159268213807216,-0.0362472629156909,-0.0400911843077045,0.0574615790641866,0.0608134427903287,-0.0247738542217926,-0.127237130526811,0.0737041348241422,0.111972446312865,-0.0203022862608596,-0.111106534787369,-0.0478765030224198,0.342021786791644,0.0105437695810774,0.00477513682555028,-0.0785240015602882,0.208885947209738,-0.096929400155021,0.0285812263332164,0.132114572329094,-0.0207443851932807,0.264486527043101,-0.172223520172645,-0.0981623728122268,-0.118673906029592,0.015999072647382,-0.0430909624930233,0.0522265079404348,-0.125875451866814,-0.0238097945989344,-0.0927576080124809,0.0592235586838015
10_X,-0.0319646310032597,0.0529782504038033,0.164340935579022,0.0737087446450129,0.00496695611805443,-0.011069123547155,0.303233900456588,0.0588253715177669,-0.05816171115837,0.00349596432567992,-0.125522772106539,-0.0808183033559043,-0.0512233995294096,0.0953336928672166,0.0365314132984,-0.321576271981695,0.10324683315776,-0.142698134737598,-0.0510326769539813,-0.00112374216739949,-0.0213323880672686,0.0098018058601548,-0.222411511821497,0.145219874609787,-0.0400390061064965,-0.0804750679566107,-0.000315918844819768,0.0120535170549351,0.032619763350887,-0.12546853680821,0.0401139294429255,-0.129984966431652,0.215778704789785,-0.0028831469549255,-0.178869846478432,-0.103167125367782,-0.0701397440976121,0.0675177420434183,0.0589331078360277,-0.057860082034278,-0.00272470023682854,0.0672735864751846,-0.0740885976783382,-0.20058258960034,-0.0179466395978838,0.14106744402457,0.0958937675012592,0.230937310801408,-0.0204635050990261,0.264386041851973,-0.463820921395172,0.0393529292894011,-0.00486160651318228,0.0671952187383859,0.0756336541775589,-0.0325568344405164,0.0562553211147733,0.00334874062597158,0.149578075422963,0.0684880661438817,0.0194604315362526,0.0537671435179393,-0.0861547365064921
10_Y,-0.152569179533083,0.115813743346123,0.0154007801526707,-0.045862351550035,0.033424459116632,-0.0885725096466557,0.0106250404518454,0.0055867864390043,0.0717929785153368,-0.0482992154171225,-0.0407068274213097,-0.0676853575751709,-0.00644671676009301,-0.109728257670341,0.0408954122784718,0.0118173259982442,-0.279434454392571,-0.0876622220562797,0.26132108594274,0.0574167048993868,0.0646088096146619,-0.139376232952649,0.337270516945872,0.0535498039872938,0.0888245375154502,0.0353737317000006,0.158911927262522,-0.0269057746504758,-0.00685662662691797,-0.0574059516026897,-0.0453682501380927,0.00321380843979244,0.23461083767153,-0.0783118316815402,0.246717531057457,-0.0831030721665261,-0.178051197910938,-0.0456186063689367,0.274428066732053,0.290379873410266,-0.0357809835548958,0.0598885622992051,0.149269624504871,0.00726222027883639,-0.145946602951116,0.00779489569494914,-0.144681886118442,0.0334484071957946,0.00138978372797461,-0.0103478429492395,-0.230945478261001,0.0425518786880764,0.0324093065411636,-0.115650843179528,-0.208480203286804,0.0488801047880582,-0.0154515211906562,-0.0144078260540304,-0.079416824583337,0.0621550945018744,0.0801047340004645,-0.170796603866293,-0.177267121581805
10_Z,0.24162602317522,0.0128661875353742,-0.11273475233595,-0.0213555637745944,0.179627285824235,0.0883100291782591,-0.0603151443765369,0.115362061908603,-0.116680438923869,-0.146499670184773,-0.0529632334836708,0.155764106159412,0.0636227241974015,-0.135468768567366,-0.000668382935986395,-0.160916860183502,-0.0139994511205606,0.0196666874158309,0.179476682760064,-0.189283809318789,-0.168435627698952,-0.0823974978695872,0.0589307309091017,-0.122110271591149,-0.126222303960577,-0.0450507319941783,0.079620891658449,0.175731111647426,-0.134390236100606,0.179894974269176,0.127384941552248,0.0113458197874552,0.102777781516075,0.0554817089393411,0.0199492886516506,0.0287680949396949,0.0575143358622796,-0.035646711810872,-0.00908227828923434,-0.0294110899263235,-0.105589409410576,-0.0052399846196565,-0.272663803040283,0.0310469776622597,0.0001059592116808,0.142025883172203,0.0274514139913726,-0.0572239058060291,-0.0665884391877229,-0.113244678657377,-0.0103482407167491,0.0733352081164585,0.37674223483598,0.176151720681429,0.0523056376785856,0.0545072673086462,0.11032989167349,-0.0118101467410736,0.128982724292669,-0.0574490384106828,-0.19032373785625,-0.191174962243353,-0.281417215375245
11_X,0.0394580584610148,-0.0504017900919233,0.140395662501617,0.044782388761789,-0.0597787710503086,-0.0950059784732261,-0.118260091573592,-0.0671920918676792,-0.139305944824526,0.297769255586198,-0.090560698310757,0.0247948541553456,-0.0904073824073723,0.229565361764552,0.0409147823449691,-0.149808075152668,0.0454279281103459,-0.0423112527527293,0.181912416236309,-0.0374520642751691,-0.167585209283187,-0.136983209931279,0.0666167701182942,0.0958963726566016,-0.0194436126112385,-0.0391882402653142,-0.0244225180500893,-0.107507338863625,-0.168887043364334,0.191221802812861,0.0926506958722766,-0.173181513037951,-0.0326217367179744,-0.136691356752045,0.0181741836207342,0.140385592402398,0.248407972315202,-0.00830534293558597,0.124244322195788,0.0188852054821871,-0.0784129700012832,0.0142541403033266,0.111855991139898,0.316238321821937,0.153336428944729,-0.0998247435715358,-0.0631250255071015,-0.102207442400613,-0.263827086855416,0.163480234486514,-0.060275890818548,0.0316769560250871,-0.0262798263023061,0.0829979182593234,0.0600520194575863,0.00237576019676654,-0.153529238278514,-0.176570915770399,-0.101654311838528,-0.110377547868763,0.1718728541516,0.122541128729062,-0.0807991171087913
11_Y,-0.326757661322792,0.100553028758249,-0.148988442347141,-0.100008489052519,-0.0350677314908568,-0.0357182481670695,0.30830735282402,0.001754509645292,0.217767425988017,0.00915897496788237,0.0203759721247427,0.0365756973076531,0.0536354334534833,-0.122837750589983,-0.0407467551936241,-0.0629093155672212,0.178245722890329,-0.0785189927503586,0.153521789495698,-0.119592603509425,-0.0236632594457717,-0.130363317526357,0.0281466231807886,-0.0514630539014698,0.195845168483544,0.0291243260421695,0.107488641943592,-0.00570642035082239,0.18810839788644,0.265999665342886,0.056850797213618,-0.0413626554409478,-0.0999040911016343,0.0041241300592811,0.0848470216018904,-0.120705091847466,0.00296107499001276,0.0616259047992055,-0.0331996146888715,-0.129479250839584,0.0235178719691667,-0.112057608621938,-0.0671551830516356,0.0390590405752359,0.210880414911084,-0.0830280050063725,0.0449781993238878,-0.211543060323739,0.00652530493575348,0.0187841888133953,-0.0308371144518431,0.0224739601522703,-0.155725999347236,-0.0675667371787619,0.268458661124162,-0.154321419038826,0.17296129981375,-0.2078070166119,0.0302735320654457,0.0242402890963577,0.0313520116294948,-0.220486180258917,0.0189986356163562
11_Z,-0.135932710081189,-0.077824863449327,0.046902249441851,0.0111763505956385,-0.200582071035302,-0.0424186172677914,-0.0572139202203688,0.0721743086711832,-0.0552947776114987,0.0743926626265726,-0.230444283043384,-0.0342386734820059,-0.057090446161792,0.0950784041753659,-0.0394449084335972,-0.252937347918887,0.135125809176116,-0.0263213573456497,0.141567720782942,0.193556191419942,-0.0824005521276629,0.0760729893213404,0.176753914103202,0.0279871222058406,0.1422204192565,0.0442618097682436,0.184274734375669,0.00429943861218694,-0.270718456806228,-0.0425242980593854,-0.0320231599826357,0.183206998418254,-0.189646402256778,-0.0265394651927273,0.0231426495062494,-0.12389661674408,0.05892899401964,-0.146553059652011,-0.027297811185706,-0.0459527589839369,-0.0394342841158823,-0.0646140186161351,-0.053560022325229,0.000231474306553894,-0.162132868305645,-0.0259940766113875,0.168053912905136,0.0817885539301465,0.19809649254572,-0.266307886963794,-0.0363723715338758,0.11726716157976,0.123954394976848,0.155939777610579,-0.0466770661967059,-0.0693302052349998,-0.0619613064951355,-0.0598812575363752,0.14014668319733,0.14474907509955,-0.0302199981290636,-0.0544914403234817,0.346923066801304
12_X,0.0709594190763498,0.175103907148144,0.0156212681394255,0.158816872829858,0.146863473155451,0.109074957529272,-0.0625929855533989,-0.0846885599204345,-0.0515972469225638,0.20646341763574,0.0597990221842806,-0.0131811396719853,-0.160978536180791,-0.16897558974318,-0.015367390608554,-0.166439783721383,-0.307178961553538,0.0148856838106857,-0.100296902216266,-0.100237355284286,-0.103771293427067,0.0799206244355755,0.328283152328161,-0.178219304352884,0.086502956078212,-0.0658794835709042,0.106037006927643,-0.0344078898174991,0.186808796999235,-0.143641824832953,0.006962484513892,-0.0082849607848354,-0.0833543426111274,0.0644967192906505,-0.075211408229946,0.0705247067479937,0.220381742257092,0.0768452074525482,-0.180282051289051,-0.00181198676217363,0.0379828608575854,-0.139248604698121,-0.119840059551038,-0.0480519491617758,0.129942392929668,0.0162848147162376,0.0467343726183194,0.00524151176163311,-0.104497911251926,0.155518574649003,-0.0693228167030879,-0.0546305018994759,-0.185989866733147,0.168592386473497,-0.235193844280073,-0.110165160099575,0.0708882010918985,0.0748969799359922,0.0597022714523572,0.142988274077799,0.0550043704644134,-0.118978343763491,0.14418962562789
12_Y,0.0260923347001879,0.147440238554917,-0.0876767930857111,-0.0391512405323759,0.113717022624676,-0.0762096598182442,-0.125394062608447,-0.0492210101118462,0.112829572500586,0.0528542081895471,0.0803252291853652,0.119481711819336,-0.0253799134914184,-0.176012150581893,0.0127183960828023,0.117990295809437,-0.111820839110577,-0.103165331846195,0.0907122673000898,-0.0592242076328978,0.104234922226288,-0.27694162504296,0.0313745515463675,0.249011912592132,0.112356016195235,-0.0676432693854548,-0.0926933759875223,0.0364119050082171,-0.107571001378451,-0.189523952875409,-0.0348342468019485,0.0717419959591798,-0.0843375646818435,-0.236326523517453,-0.391867705494474,0.0437740094467271,0.138492471379722,0.131990337190298,-0.060377937241554,0.0380044147697727,0.111972658097787,0.0181220673291212,-0.13892359307014,0.145390503230993,-0.237784268880261,0.0173057184559143,-0.00221052116330499,0.141742818769358,0.0991947917934363,-0.0245525842866172,-0.0897165319047098,-0.0407736162202852,0.0900672769729063,-0.0227730652421713,0.269001960408232,0.0951651496048993,0.168097997201464,-0.141751058982593,-0.0608697403726636,-0.070076112702135,0.0610594962577608,0.0318080665506833,0.144321186297932
12_Z,0.121702237136162,0.0861380821277489,0.0624365908421795,0.0912785334160741,0.145210973800811,-0.0559961921459475,-0.0798285102161215,-0.0341663076773382,-0.15060250102547,-0.206938153853686,-0.2990028221393,0.0500719445013141,0.0683488387724464,-0.120473885846483,0.155365734711741,0.00183756479634828,0.18212774364757,-0.214469432785753,-0.0360742098354411,0.0373302849194792,0.185110359573594,0.0382117125132074,-0.0268915144234985,0.233634908543427,-0.0926804101433475,0.100692363255658,-0.182806670488558,0.151487892482444,0.019558652916609,-0.0301576293191142,0.0155875929343638,0.133027065827904,-0.073517695490477,0.0314379727725251,0.10192890561433,0.0788431925121257,-0.0332366423235168,0.0365184714692341,-0.0776883688006456,0.0124830458041587,0.0172103418901738,0.0638872138365546,0.0808679340987279,0.00864928168110151,-0.0321105951266189,-0.0562829067306968,0.0470778960794451,-0.0716432830871602,-0.183974697006481,0.159647858868926,0.0906249710558141,0.0151221437791883,-0.0133477316573083,-0.0381453562991794,-0.103160454856805,-0.219224317932377,-0.0550960318507224,-0.0686579342809468,0.064111061009368,-0.0994708782277351,0.232468450741411,-0.426122403432023,0.161729719070636
13_X,0.0381307808011703,-0.208064458112449,-0.035111864477768,-0.079571279880347,-0.0907441569197582,-0.0741262319666413,0.0434401823802677,0.0442294376215296,0.185003925022519,0.167307743216029,0.334371945498031,0.0791993098513472,-0.074533471421363,0.0902010472391262,-0.106796581657529,-0.0402540805274057,-0.0527112006309935,0.112301222137849,0.121038312405702,-0.192420896165275,0.0620868301366639,-0.207401964209003,-0.0965536503866398,0.0447318545478165,-0.0794409333815086,-0.0294633943877438,-0.1493825753706,0.0898967314588614,-0.0756445181151113,-0.0130749327329734,-0.122239865103068,0.222461989785525,0.0451325002154368,0.182310834462129,0.216225865168741,0.0259478568671287,0.0575054156357042,-0.0593176677397399,0.02923964037638,-0.237822649165418,-0.216470065022425,-0.033632178364637,-0.123661651561457,-0.0165996943017308,-0.0531030921427751,0.06428719726052,0.075419988379497,0.0567972957654447,0.00847649367848685,0.203421289753339,-0.14205235089741,0.024041308115735,0.104028929565142,-0.132767567347305,-0.172631677119068,-0.0394494695585395,-0.0339621537322613,0.157817475549222,-0.0634921682327794,-0.0858939308243339,0.183305097404799,-0.149429153437768,0.219463024593637
13_Y,-0.0728147172792465,0.0940059198010691,-0.00356129945498975,0.117239878123712,-0.00471919862281292,0.106545625391515,0.0546022496757052,-0.0565178292829199,-0.0461871717320732,-0.207258564123758,-0.0448661493245387,-0.131409363191637,0.0592710704786094,-0.0691232613802136,0.0457908044605957,-0.072901595527652,0.0618822349203318,0.164364784204869,0.15605060251741,0.069771457274163,-0.0579603534322626,-0.0245519625868379,-0.0553690676564414,-0.102487464050768,-0.0165990311563577,-0.0741819523607312,0.0206723149373986,-0.00320478546199854,0.136090747143361,-0.029613454977822,0.101728979502299,-0.0733150452840278,-0.110605590173734,0.072873984164155,-0.00228511495249168,0.0408336784752363,0.15012895010163,0.155791909377601,0.147618356236245,0.0627378374565706,-0.209525000324956,-0.00735997397847121,-0.0322145006689889,-0.214537760960767,-0.0393627116043757,0.0641869791733894,-0.111887618340841,-0.024335462147883,-0.00800992115855025,0.155444696096304,0.0199827618173307,0.017502823541079,0.0518144395901774,-0.0445327629083166,-0.0364952390665144,0.450468090759047,-0.151209984779237,-0.233409751987579,-0.209950174739585,-0.175707266354642,-0.148863285717042,-0.0489913217316386,0.378524533263008
13_Z,-0.00719154650907858,0.0815517685106996,0.0744179772164251,0.0214985262139887,0.0590815370922436,-0.075626348191285,-0.0607520100202284,0.0899792439546954,0.160275840597695,-0.0309377993005801,-0.182859096925435,-0.11922255105952,-0.0200007134361779,-0.164643037746657,0.0968199023536927,0.111409217866749,-0.0429733786789448,0.0915091452948535,0.159676393684347,0.223081580295602,0.0796150809335296,-0.137897802424371,-0.0937538628815115,-0.00491631608957133,-0.0300535406176076,0.0509946753041568,-0.292635841863391,-0.051837368893149,-0.120813422271841,-0.074160353511665,-0.0438321384424732,0.00724997583281609,0.00108514437132376,-0.0487299871589408,-0.13719335570578,-0.110063978898124,0.0738580757914078,-0.0309405264524821,0.0104455162489596,-0.0433165476526362,-0.25778424131031,-0.283572805332829,0.0378610812053001,0.00995553686988019,0.449781527659774,-0.049894405752289,-0.0164239254550262,-0.11646256465513,-0.0169755712918343,-0.042998575264791,-0.0528554636189501,0.00830194184661695,0.0751789990948604,-0.0661616374766977,-0.078235661686691,0.157404958728594,0.0632382551353361,0.188210987827655,0.270048030923113,0.192104688815528,0.018838868750009,0.0658571160861215,-0.0236152179299681
14_X,-0.0611368710113882,-0.0510127889966325,-0.0860097083052673,-0.176072766603426,0.0523584870496035,0.0422948328883734,0.0608892537178714,0.0159088927641136,-0.139042668352927,0.0957475793235981,0.0177312574208273,-0.0435682766725036,0.0724602254737891,0.0520515408575766,0.161606892083939,-0.0918015582032911,-0.191976218583313,0.137639283029716,0.0515014769339038,0.130765042497643,-0.115613485499162,0.140921396936263,0.144101256979957,0.190987163091909,-0.0231867196982543,-0.0756616818210687,-0.156446630129099,-0.0151009758729377,0.0685373333712386,0.173669267210927,0.0182983983734536,-0.0699408994746083,-0.0515318405882619,-0.290434521758573,0.00660755155120822,-0.0854151365075039,0.030640049328242,0.194001769648545,0.100123358385622,-0.155241696401638,-0.24292634406595,0.0187513383404136,0.079874675940993,-0.138968784717923,-0.339616584762893,-0.0209899753535456,-0.0220886090461063,-0.0978104464176811,-0.0556742781332665,0.120201845701156,0.192816835363038,0.0236727351994433,-0.0699051363194558,-0.0563740322496666,0.120066520461539,-0.106476721831913,0.166250878895639,0.300869960096327,0.189309850135003,-0.049705338543634,-0.105302908749155,-0.0226176431200239,0.0369942987390286
14_Y,-0.143221638506339,0.116501689348471,0.179335042044863,0.0537935237377322,-0.0176693491249639,0.145294468135037,0.139884698222518,-0.00132640661088488,-0.099335956134262,0.0119908726015754,0.0523323153854641,-0.15471055530533,-0.0189396468063713,-0.102053001914052,-0.0667297395976425,-0.00191182520081706,0.280928164628942,0.0603647977301368,0.123516535885882,-0.247422792215092,-0.0502244735632353,-0.193341439586703,-0.00456923619321373,0.0563480776693299,0.165096775640337,-0.0950031007149839,-0.118516920464144,-0.0351208291459429,0.0398244890713231,0.0258340478525224,-0.0143343187059385,-0.0495804489012177,-0.00128190367502569,0.240513878670992,-0.20617456278908,0.0923328624394212,-0.110649752584971,-0.0256183331673178,-0.0312867732666916,0.0933216518291707,-0.157790359694151,0.0221351472942973,-0.0241870729309198,0.252830595936428,-0.32016909216769,-0.0649642445688483,0.0398627265946428,0.0716251282688885,-0.0436941644604966,-0.0582745878387267,0.259498750003623,-0.0476542302082834,-0.11842856492514,-0.0133720559403076,-0.244822323075542,0.0786684666471697,-0.0598394578745296,0.0829932855614736,0.20549498300701,0.134132440746235,0.0317302636314537,0.0174673134693214,-0.131433834195501
14_Z,0.206312476844488,-0.0940877380755557,0.110552220746986,0.239196166809641,-0.126406012800129,-0.0782315078084785,-0.0675721372017264,0.0337021244829428,0.323650558071454,-0.262495896172926,0.0663202037746843,-0.072646196994462,-0.0643322203537934,0.0629767806473175,-0.29907774982654,-0.222263613960731,-0.00982454524201933,-0.0668894058598789,0.0994924054944551,0.0739086149122245,0.055441471605839,0.0969855065286361,0.0766113261171673,0.047722869846759,-0.062704993569305,0.0710527975137805,0.0558946250121793,0.167100302033318,0.203783714282028,0.0918689604378322,-0.0330866627147717,-0.021004366462466,-0.0149777349210247,-0.208148451606131,-0.173150144240056,0.0129986406595607,0.190411982581422,-0.143097025223059,0.181433744272579,-0.176814097666062,0.126123769815737,-0.0398615791945638,-0.00641900830829308,0.0563365908967845,-0.0810694112757103,0.0231370485379338,-0.039823261364648,0.0170599879963688,-0.00253358467881798,-0.0553244400272623,0.102652854902372,-0.0262893832838295,-0.229368899060893,-0.091352153727047,-0.00873409060906596,0.149269125313237,-0.053651943941254,0.0762910452678083,0.11243173437934,-0.0566848158097474,0.0424672060277274,-0.140430349639188,-0.144833434193245
15_X,0.0106847692442882,-0.111769302044416,-0.015324835191774,0.0709585775232538,-0.197041847563521,0.0976138450074715,0.017685138172591,-0.00337829704103773,-0.152414793780675,-0.0409633187051026,0.188535948226643,-0.0149126111370634,-0.0692151600095936,0.174572484915037,0.0617472296686163,-0.163611434536464,0.0204124441260872,-0.0524683340253091,-0.0477763362551189,-0.174349947661519,0.0740772657336433,0.105906867172466,0.181998303052937,0.0415953753565299,0.0828132063321117,-0.0592653709584537,0.125386074745969,0.139124656742385,-0.104860685400569,-0.27723656585223,-0.0994294196963518,0.109636117910497,-0.00685632303066126,-0.13469704289542,-0.111924153592076,-0.139384573608747,-0.239493962588668,0.171363786246231,-0.0303909046981841,0.182950662433782,-0.197762842160861,0.0156786961281884,-0.100389530176308,-0.0260582307641916,0.299328138071638,0.0499779434064893,-0.0150386756415903,-0.0686615092832241,-0.136033318250192,0.0126143086149803,0.250652514686764,-0.000249663103580471,0.0790890728708017,-0.210626365939759,0.219569209184616,0.132937282474898,-0.0188320138480434,-0.0219637403657024,0.0177324202936966,0.0759066649943414,0.174151896370492,-0.0874428159036173,-0.0548769739974768
15_Y,0.00159748151715932,-0.0865507214146752,-0.0989727812988647,0.122618459477851,-0.14140574405155,0.262426753356731,-0.130771113625166,0.0213664168245113,-0.0283369340162039,-0.0537791110453902,0.145197630311766,-0.0732146052317593,-0.00470177727366652,0.0978404772960431,0.129745577804885,0.205741388388123,-0.0199095470257374,-0.0394902292554981,-0.117778393157553,-0.14048139115799,-0.184589466814923,0.003353132378437,0.188543557831734,0.186068110503228,-0.0614175726505147,-0.11835334359309,-0.0954731102329293,-0.0687407675266468,0.0750272227236692,0.172544114829877,0.0256156853837353,0.0415222957011339,0.0500375016429598,0.104891696930958,-0.19543421309258,-0.013008602055354,0.0398771762031038,-0.152942772220476,0.124958033714379,0.105805542616727,0.0757679970254722,0.0580754975673175,0.13359939388093,-0.071677124710317,0.127992330975878,-0.0769457659108427,0.0779247613806386,-0.0800687221429535,0.094591811904957,-0.0859605875291117,-0.273838927737925,0.037363661193528,0.0506912420482549,-0.204963197603212,-0.0860499289221159,-0.0677624276935401,0.045918423413764,-0.186874894439177,0.357617522759291,-0.200033797073328,-0.0879961053244071,-0.0510212514134056,0.134224029653943
15_Z,0.049175497618931,0.0419588675716805,0.0517873278020118,-0.00502965595768563,0.0526864298694981,0.335890936568897,-0.0237316259464721,-0.0504553433975041,-0.0934771897637446,-0.0586522365152789,-0.0102424897581237,0.0397713775790072,0.0149928659771094,0.0254022317596845,-0.198297715435408,0.276075960749014,0.157458374724873,-0.247954388481088,-0.0794226051230192,-0.119412277439825,-0.0653544669655751,-0.114701793342088,-0.154523304154662,-0.155013406925606,-0.116076792995861,-0.105990775626479,0.285887734359418,0.0209646654319035,-0.0293644173333569,0.0640948968144589,0.0297783625643455,0.0237012631965146,-0.0254530606300127,-0.338989344873264,0.063701922773696,-0.174052258595695,0.102581206468128,-0.0701115209630642,0.0789665339223404,-0.0103849072116978,-0.0620394019665336,-0.185947243875423,0.186807307052736,0.0349777679164925,-0.10031251686876,-0.0785770012160826,0.0312577518476407,0.0288860544109,-0.0986933187496749,0.129721564885495,-0.0746680583149852,0.00173814174520061,0.0931526192388606,-0.0665622728243391,-0.0163455597723691,0.0472645578135321,0.0880792433150775,0.197664317357005,-0.0635048094934032,0.257827834568912,0.0608265167391224,-0.0356390114650466,0.155900639339611
16_X,0.120699017141998,-0.132967426991495,-0.0259475590057469,0.0521685124959589,-0.0662908157855633,-0.225468591754741,-0.196319921234738,0.0117490693294524,0.0112688188923267,0.184828939881812,-0.0888177330163875,0.188937221600963,-0.078415995912371,0.168891225397787,0.0559677734464366,-0.0855776683768738,0.0298643088991939,0.0181820918623284,0.159535837520903,-0.00307039895400582,0.0931861230465923,-0.17123046515995,-0.201866922283669,-0.185548547384552,-0.0910769412794421,-0.0328495969618638,0.0749163836923862,0.0785903847132517,0.466109799091244,-0.0346549696368629,0.110954088775234,-0.0313651586116626,0.0376927296631584,-0.014490614314546,-0.0937883939929859,-0.079873580040032,-0.0399229558266371,0.237355662166321,-0.0534955923970091,0.237564969755694,-0.127488206615738,0.0141043518845287,0.119733275952401,0.0570038399290933,-0.0449363977489191,-0.054550032977122,-0.0147452192454137,0.0511624009904149,0.0762609615274807,-0.10451393833897,0.0198916221443784,-0.0473657311717892,0.0804585521598901,-0.145055414680204,-0.0852275505641099,-0.20435481545383,0.0272335397609428,-0.0660147803241239,0.0987974085400564,0.123712250996156,-0.210143330623091,-0.0481112392615627,0.0787253446674459
16_Y,0.0483183717246737,-0.0569630222003419,-0.0156302108585264,-0.0146958727957411,-0.0246188559632061,0.0767353014632825,0.0421967534257562,-0.01008458652399,-0.0189027038311744,-0.0699529535835556,0.153814329144343,0.084853099016655,0.0628733454346576,-0.00517899784563062,-0.0435322566152556,-0.038848890833429,-0.0933240452053937,-0.113684404584486,-0.0894501593841731,0.092250884475658,-0.0746995037119875,0.104756759903114,-0.0622738218730126,0.384952771099885,-0.0119933441310636,0.0736578809467683,-0.11314006869383,0.0406817198603874,-0.0536024099251661,0.0775400541452766,0.0335851674776288,-0.0297693517096323,0.0460492727457386,0.15040990731446,0.0946300559884106,-0.148343085140924,0.320523108978817,0.219920288188429,-0.027404019855293,0.0190030503669528,-0.0535962096687041,-0.183109328542769,-0.0532116174691569,-0.0387192934411671,-0.0714348751494516,0.0238232233673153,0.0032359045043612,-0.0362597533797381,0.0323907490237007,-0.080081658099516,0.0535391163148234,-0.0387007791417364,0.0250222560497892,-0.137114168550526,-0.173787849674364,-0.0392446554137574,-0.0439604420720165,-0.339418813306819,-0.164228314311945,0.460651895868145,-0.048501876557393,0.0491536228837462,-0.15710668966783
16_Z,-0.164117238235099,0.023890835181,-0.0938999593177234,0.0575030647221198,-0.0966939424800781,-0.0271004231708149,0.213155590331217,-0.0142596106599711,-0.266628603706407,-0.0663952197363136,0.081400439822545,0.0293215658348518,-0.0177099389982088,0.0351577796522025,0.284764406777163,0.062763193571463,0.0291316209839242,0.0130694177617219,0.0165033569069756,0.0580261028095287,0.0669230390408799,-0.159260790028193,-0.135936192784979,-0.140042491874807,0.0216385715077481,-0.0827237259280291,0.0602013938409195,-0.0181604982179425,0.0614255725987294,-0.190576938146416,-0.103714915427454,0.136129690105708,0.0760846039348201,-0.131553652016128,-0.0757458647427856,-0.0550597140728792,0.389516691150074,0.084685772302249,0.308390112930507,-0.13359055967451,0.197696583516035,0.00705603327400954,-0.0686751093180506,-0.0198798921901303,0.0718610240997077,0.0311141690160902,0.0698975960380502,-0.025044512069624,0.0468644051716402,-0.178449775271232,0.153878812626911,0.0986591260265684,0.0360296959905783,0.075724474222118,-0.239768197636895,-0.141791129730666,-0.0250568346664925,0.0597963486456517,-0.0303320101594257,-0.156263818241274,0.105431602239298,-0.037659545053172,-0.167601589077172
17_X,-0.0307851461596023,0.0324952492200244,0.070337878929582,0.00676051951210804,-0.0249371238963068,-0.293362641403123,0.0953959480119889,0.0159711262130337,-0.0155965835382187,-0.107165123170564,-0.0280712419306377,0.297728686633538,0.0201973437431114,0.0210972414916616,-0.0155297461014824,0.0423605385112231,0.126767437707956,-0.0408777487210011,-0.227340883049443,-0.198676438880343,0.18823290522312,0.288352184080492,0.22537171092714,-0.22189770034043,-0.00394559245479556,-0.0496114269092054,-0.123205469075106,-0.0841390817781373,-0.135115077707075,0.284720433261953,-0.0897594370221618,0.0652442808316229,0.013006921425782,0.00946524949969921,-0.203301747902678,-0.0146775688099219,0.00120961066263864,0.313957623245799,0.136139706682039,-0.0109274175874561,-0.159080769142549,-0.0917631687163,0.0721583509700376,0.100660966516859,-0.0531685251162048,-0.0157900979670644,-0.0648127543096489,-0.0169615928919153,0.0762684035141445,-0.0821934050440697,-0.226054487631645,-0.00989599174861183,-0.0057062067059589,0.0722301250053089,-0.130796606087588,0.124636084453753,0.0216236377446357,0.0599858948821975,-0.0637322750407248,-0.0134895846917007,0.0383913336377937,-0.0109632531386894,0.0425645221310795
17_Y,0.00718478679129987,-0.0242589710675652,-0.00241387126526251,-0.305558778019129,0.139807167900875,-0.0508848510052832,0.033051363442082,-0.0182041103158533,-0.0225074501003491,0.18466075165052,-0.133228257176047,0.120091480155333,0.0018970173700128,0.0268919872789517,-0.128839102814597,0.0827512938631956,-0.0664287624089239,0.125754501332031,-0.0940431431532528,0.21495567775001,-0.39070186511039,0.0845618735226508,-0.223569051391237,0.14010741804871,0.0566334469217355,-0.0181003470482921,0.224872127654349,0.056601886677177,0.150519019778862,0.100733630263341,-0.208019326841356,0.166764766287685,-0.00936078251101529,0.067762298257454,-0.264625857897997,0.0266294896946053,-0.103103333065059,0.0488836644170152,0.0398098970878803,0.0565898954774442,0.0358222418906736,0.0546132253829965,-0.0447901889507225,0.0154286107872893,0.0643821144652735,0.00379687285220578,0.00648310805680889,-0.0738828768994219,-0.0340238528740128,-0.061789125183616,-0.0375023944729923,0.0121838947954191,-0.00758985504640553,-0.0292705646699585,-0.110464573158978,0.253095692198773,-0.0815111282799093,0.00926632470198118,0.0118482547942477,-0.0243165058005592,0.243061489739276,-0.252705853605409,-0.0458024911547561
17_Z,0.0063920351471418,-0.049003886238411,-0.245016885669061,-0.116763358987335,-0.0360025866881536,-0.0422069797947085,-0.0218255453666798,0.0286375240183107,0.0869071569747829,0.204804152569153,-0.108758377330761,-0.217994933649674,0.0260085364864689,0.0207827840143784,0.411378276353854,-0.0636970998249776,0.172064179142751,0.0279885160227192,-0.0880921604502521,-0.259335465813997,-0.00930602908159604,0.0712765633802188,0.117196150173879,0.0878440170858531,-0.0866032433214533,0.0142485506023584,-0.152856740028037,0.132178204559194,0.182423821348118,0.0136687303003875,0.0540986894472296,0.000178558256058125,0.0103379270132931,-0.100189159693063,-0.0428364246079111,-0.0713952831783724,0.00112613810831171,-0.192262690443241,-0.0106893984473659,-0.0785813708442983,0.200893474717677,-0.0775532402693036,0.0135271669779249,0.111113733177832,0.00764933151790454,-0.00345816819304303,-0.0273506771408927,0.103234884486115,0.0185876455610304,-0.0138030123901422,-0.0551077016306821,0.00882234740940877,0.0430010616141458,0.0491840484304338,-0.0083799885519789,0.26118091321652,-0.155822379550697,0.14012116452781,-0.253246769882102,0.252263853490737,-0.109352548940763,-0.169120859746335,-0.0125071703765362
18_X,0.075024303478354,-0.00474753961575914,-0.358805600330567,0.0144717094353247,0.0135274553086802,0.205570739431123,-0.0127165980945383,-0.0413492897536245,0.0711387235575414,0.0299169831079309,0.0578126785616236,0.0661150109655917,0.0229428538394004,0.0436493241102779,0.149442048447942,-0.213534478528503,-0.0395917113971359,-0.501972477849178,0.17922076162513,0.152310797335895,0.156230510464143,-0.0519336276647014,-0.0891286471344668,0.079295285742974,0.0266877009784571,0.0121482291146525,0.17465160659062,-0.120625677734735,-0.0937004816663235,0.13967067723424,-0.00361215797792577,-0.0452305214058729,-0.0967947007356268,0.194078679971396,-0.147265208512597,0.144175422027217,-0.159620434221074,0.132053771762541,-0.03925167070285,-0.0766086599217461,0.00502316336248359,-0.0119238158871313,0.0324503021708673,0.00499158247401211,0.0475834448162716,-0.00591803183181551,-0.020434128931351,-0.0994707145442416,0.0124175373425216,-0.0377968315158134,-0.00298483221627012,0.0312198108294838,-0.0712381000418259,-0.0211710563661162,-0.189654460215858,0.101429127881198,-0.0569019862875259,0.262580301454449,-0.0631636713226782,-0.0775870941117012,-0.0467868180424184,0.130700001386059,0.0329904797535329
18_Y,0.0785926610004407,-0.0460821834440639,-0.28823095245705,0.116344428617706,-0.0682868873278614,0.110760482690726,-0.10312763484624,0.0150768071917538,0.135290638465991,-0.0670225282697964,0.100536485400967,-0.247253077886393,-0.0400378048489586,0.0529186380030548,0.2328080101466,0.02266826205894,-0.0693634266358988,0.104039356334032,0.00352374658476375,0.172453180571853,0.0471362791051714,0.0409979977598688,-0.171588570503282,-0.335584752111251,-0.0220490808686744,0.00106031314432239,-0.02586610073235,-0.053621662177279,-0.0987296050266967,0.189154498610699,-0.16432396415826,0.101201703638127,0.056237245723176,0.0132027810791701,-0.0453182088631262,-0.00728338054114356,-0.0278854580556361,0.0604824846467329,-0.0511341464610935,0.0920725667536801,-0.100824003873786,-0.0394311364588178,0.0415614340332724,0.0460359435633575,-0.239134764448063,-0.0315475913077196,0.0238373955418136,0.112866519545249,-0.0770820953316948,0.113016239699082,-0.0443685550256034,0.00612457148731869,-0.0801493600473552,0.227199337846104,0.134699513117304,-0.0213995066296156,0.0218316458603605,-0.276462683828562,0.115310019514843,0.145601796075127,0.313372541200185,-0.100187458564573,-0.104638944281491
18_Z,0.0296416145883367,0.0326643218579196,-0.0124269213451524,0.329455996063514,-0.152628536949179,-0.00606518693763355,-0.0499573010157075,0.0375400829582949,0.107907744774211,-0.252008673282244,0.018820944717216,-0.115504933320072,-0.0726453951505997,-0.0580511706288058,0.04802911284169,0.0224875560893185,0.0674863710715266,0.19440773912363,0.024097880045201,0.0243743721541554,-0.452056500848612,-0.072833384076282,-0.0385756479827366,0.156167490366743,0.0190846999847904,0.0719727121741867,0.00681207160638261,0.0182280294687967,-0.0460424212994456,0.0108822608879114,0.00115263747138644,0.0402339780897129,-0.0145872974328935,-0.0345554156871673,0.016385002026822,-0.0150931345912188,-0.188563492161245,0.344430492737619,-0.0387717715019061,0.00770494605306341,0.046563814891709,-0.0257810781681307,0.0180741538231383,0.186070522152175,0.0693292641437313,-0.0428874040722624,0.00624846105163591,0.0375208795854282,0.00379480673158343,-0.0561125526370522,-0.121692859408894,0.0258151260357616,0.0230398730209725,0.0723044186584854,-0.0281022644050276,-0.229340058696225,0.103146272726938,0.268444403720477,-0.323751186616607,-0.0429226264408384,-0.0264285202248896,-0.0113293740939729,0.0383950552802111
19_X,-0.12901633604733,0.0846695849599661,0.282549442476683,0.163488839733484,-0.116168505423865,0.132528996335601,0.0592242122753054,-0.110211523613694,-0.307509030291875,0.037942732855334,0.177890283536898,0.0544285532196489,-0.081805042550876,-0.0312688249225401,-0.0354063792058919,-0.109284795219603,-0.256807225976982,-0.0401746685365176,0.078038273008171,0.2335154879304,0.136668945569872,-0.00575625262770307,-0.10284004929189,-0.10758955093609,-0.000932036983164353,-0.0801181069004634,-0.295833937724484,-0.000626165785102578,0.114696526213997,0.307507389275525,0.0184578891927229,0.135262620281227,0.0203644942655267,-0.0523166452969016,-0.0474642654795846,0.0254228584504047,-0.137009407437683,-0.132450823613736,-0.131797223938738,0.00511089728689785,0.162882850349332,0.0549435643313394,-0.0610804091851133,0.0994336023909597,0.0232530255886657,-0.0654082595763899,0.0595302543614267,-0.0649176108960178,0.0621638959751254,-0.0675427854377916,-0.0839013273417562,0.0399182438174769,0.153261254172784,-0.0603310539395109,0.152993421146031,0.0815581893766355,-0.0519126238175952,0.08676668993249,-0.180705295315525,0.117477315144391,-0.0608697445132164,-0.177123247597639,0.0242288219707774
19_Y,-0.0276565725081478,0.0290504080911413,-0.144874302097867,0.222310474233224,-0.11624024878783,-0.37732612689097,0.0281752474770378,-0.0203948157216326,-0.156788314727933,-0.194021510076186,0.174181627730584,0.465095252479308,-0.0124596623954998,-0.0533360929740705,0.222871137555285,0.0458356806576431,0.0169928592557879,0.0363702893492636,0.0649050474565265,0.0436904991244072,-0.216049558333318,-0.0570365955302883,-0.0203347312037174,0.0803427752851118,-0.0167269681178368,-0.0358629068853983,0.0996953358034658,-0.060642760348658,-0.00439640092369208,-0.028856568749768,-0.00160155595614052,-0.0594265476823488,-0.0206734570922096,0.0479311450065713,0.0358497283472491,-0.0355721880840112,-0.0575295511311367,-0.34902355857716,-0.113546122412173,0.017352849287424,0.0308991354120641,-0.0583886387205341,0.0533263301695126,-0.0927795360172454,-0.0800846330037746,-0.029856929321633,0.0061117758733712,-0.0110157884447999,-0.102517685226626,0.169894503000754,0.0426655436546532,-0.0179610090535148,-0.141659995470064,0.0200231926836179,0.028012189471067,0.195503191140816,0.0673493150114317,0.0466330644020011,0.114276797778485,0.164463328505497,0.0235287715046872,0.0770043084884801,0.0442995282297319
